3064 100
uttarakhand 0.20474549 0.19399087 -0.671049 0.13201831 -0.20297413 0.30703214 -0.36963126 0.02751989 0.57230663 -0.26311994 0.07260231 -0.10590133 -0.067619815 0.37251905 0.113108 -0.05077212 -0.592972 0.20378353 0.22403307 -0.09252896 0.12637442 0.07696428 0.3935296 0.5460122 0.22360215 0.37886837 0.2933795 0.29459876 0.11906717 0.0057351054 0.09168922 -0.11123331 0.4645726 0.044787407 0.069543935 -0.22693425 0.1821104 -0.30511647 -0.006909416 0.108241856 -0.20449424 0.07857052 0.26581928 -0.10415519 -0.04621004 0.052447766 0.22610095 -0.17242946 -0.30196196 -0.049998254 -0.036269534 -0.004582088 0.041214947 0.24996118 0.38054433 0.07491898 -0.28163946 0.14417118 0.114076756 -0.18768716 0.3785921 -0.43948314 -0.6042479 0.24042349 0.8634914 0.17530881 0.45045295 0.5881647 -0.63928235 0.0070230966 -0.6730558 -0.19584267 -0.052083574 0.22016026 -0.2540668 0.6616076 -0.2631236 0.04945803 0.85478234 -0.5550317 -0.3926918 -0.41858652 -0.18720947 0.6465399 1.2813971 -0.7351402 0.73137903 -0.07927256 0.2976114 0.26847038 -0.31561872 0.3167221 -0.23327433 -0.10866204 -0.884753 -0.52560574 -0.11571504 -0.09806579 -0.8836525 -0.24598737
co 0.16112256 -0.044394318 0.031224119 0.025880748 0.14864188 -0.228458 -0.00049967127 -0.2337091 0.35524657 -0.03635268 0.064094044 0.15704605 0.0057438505 0.55233884 0.28291863 -0.29824623 -0.45128822 0.09964973 0.03507969 0.06892296 0.31149817 0.14353167 -0.12388998 -0.2049652 0.051935565 0.12754345 0.08675368 0.04379211 -0.2537004 0.11060426 -0.31367394 -0.031697176 -0.19317979 -0.08642532 -0.08301679 -0.12965529 0.25308812 0.3953057 -0.21486135 0.2266104 -0.06349565 -0.03359552 -0.06807438 -0.015253009 0.08033767 0.011416726 0.141296 0.02694164 0.19948202 0.23196399 -0.11339954 0.024789782 0.17801182 -0.12287657 0.020759039 -0.029077861 0.089626476 0.07834161 0.105621375 0.13469489 0.05001552 -0.42602214 -0.21253605 0.3739055 0.26403907 0.20467332 0.4666712 0.14936939 -0.21852289 -0.11972321 -0.07793219 -0.13490795 -0.23476577 -0.52944225 0.09324266 0.42180127 0.060059514 0.020177675 0.22186215 -0.40022764 -0.06465353 -0.6624562 -0.2837177 0.8948395 1.1205033 -1.014998 1.2377193 -0.29661715 0.45296872 0.42754275 -0.14624962 0.43218783 0.17741135 0.022682698 -0.702999 -0.25876275 -0.52892685 0.021138724 -0.38453415 0.16038957
http 0.35528478 0.122732006 -0.27196342 0.06325012 -0.11495187 -0.015033783 -0.17376885 0.21059711 0.44192803 -0.2650851 0.2378919 -0.01319397 0.113662295 0.2105458 0.12734404 -0.15725839 0.8130827 -0.113513574 -0.33813578 -0.1469492 -0.5472428 0.048831757 0.33178172 0.16918723 0.18519962 0.28739324 -0.05853379 -0.14864378 0.5257199 0.4945512 0.6611191 -0.06304276 -0.027987743 -0.124933004 -0.21734816 0.08216732 -0.1590649 -0.19234909 -0.12540245 0.07129077 0.06900612 -0.29482785 -0.020942865 -0.29973325 -0.057520222 0.6795192 -0.093320265 0.19180928 -0.47469294 -0.12505782 -0.040516034 0.16572477 0.27955264 0.14657621 0.6093213 0.24060854 -0.07071168 0.0007674228 -0.14433838 -0.004182408 0.26921642 -0.04146232 0.02411833 0.14587095 0.4312928 -0.13432486 0.036292735 0.17721835 -0.3163939 -0.3179082 -0.453785 -0.2581138 -0.012892458 1.1238477 -0.5325289 0.35373193 -0.34557515 -0.24835026 0.39872414 -0.68092513 0.088942476 -0.18167035 -0.14189227 0.13211189 -0.15517588 -0.09347315 0.121076636 -0.14485288 -0.07281565 -0.16330042 0.068912834 0.15387124 -0.08862372 0.14030719 -0.2860849 -0.13624564 0.3295554 -0.1244265 -0.08589545 -0.08704817
prayer 0.22181568 0.020955812 -0.19461079 0.013590707 0.11024619 -0.26271605 -0.07827605 -0.33681583 1.2573693 -1.3455813 0.16897881 0.087253645 -0.2580341 1.6132085 0.86906403 -0.739706 0.002560274 -0.59531623 0.22260982 -0.18807097 -0.39202532 -0.13992876 0.6202938 1.5449686 0.05439853 0.15755138 -0.21417321 0.107874416 0.54496795 0.67785615 0.68551093 0.3824069 -0.09844693 -0.667821 -0.2090018 -0.27119556 0.086772025 -0.69653386 -0.8592014 0.1052966 0.02236576 -0.03338384 -0.45252895 -1.3329275 -0.30252594 1.366439 0.36233965 -0.017850397 0.03462596 -0.23048648 0.21353385 -0.23537005 0.07837585 0.9071735 -0.039915644 0.46096474 -0.42774972 -0.110946365 0.021117704 0.0053226906 0.82769483 -0.6778139 -0.60665685 0.08774559 0.6471319 0.015478717 0.97094756 0.57686305 -0.20538402 0.22683194 -0.46027023 -0.1582229 0.056171108 0.19215076 -0.2956874 0.20259221 -0.5267804 0.19989045 0.6740021 -0.22397527 -0.23791617 -0.28190064 -0.046656992 0.70207185 1.2738708 0.080290645 0.12020726 -0.016064681 -0.055743262 0.24900766 -0.7966387 0.11061807 0.078576766 -0.42887634 -0.0062662247 0.07566242 0.0042137047 -0.25512972 -0.62024647 -0.07054491
chamoli -0.09365355 -0.2430527 -0.9252323 -0.06405435 -0.22121081 -0.16888425 -0.000779982 -0.3697181 0.99296373 -0.586031 0.5313246 -0.30128816 0.09090363 0.88585657 0.28733858 -0.15479822 -0.14615756 0.05441065 -0.09267353 -0.19169497 -0.34490982 0.05607031 0.35045195 0.67400855 0.19285583 0.63479966 0.5314637 0.28518608 0.42403978 0.60642546 0.24391212 -0.21863882 -0.0855721 -0.44798493 -0.33132944 -0.48264495 0.2331088 -0.18295178 -0.28828064 0.9569444 -0.020559525 -0.3015352 0.6503479 -0.5120401 -0.3486312 0.66802096 0.2180367 -0.79428035 0.101772934 0.42718172 -0.23025537 0.20436805 -5.526776e-05 0.34296125 0.5149783 -0.17372106 -0.13337184 0.32462087 0.36436367 -0.28582075 0.045329925 -0.05678961 -0.4540875 0.210792 0.7614925 -0.083203405 0.42223635 0.55792266 -0.86587596 0.10869054 -0.1055685 -0.28484637 0.10455794 -0.03180868 -0.19587405 1.0158988 0.2070694 -0.6722415 0.38366804 -1.0061064 -0.37783545 -0.81706464 -0.19493891 0.72034216 1.3671103 -0.4866368 1.2396548 -0.54391164 0.09279801 0.15808074 -0.13183492 0.25119594 0.40810505 -0.2941446 -0.93375766 -0.2520857 0.41812187 -0.2271728 -0.53160954 0.027624505
glacier 0.07875807 -0.5042402 -1.3621353 -0.16230375 0.06780205 -0.39281163 -0.3465958 -0.42979178 1.4785465 -0.9164953 1.3760139 -0.50126374 0.13934845 1.7109091 0.24071296 -0.09888619 -0.46358958 0.012322285 -0.57142806 -0.30960497 -0.6927519 0.65261143 1.3348073 0.74625456 0.082125165 1.3919666 0.86421067 0.41486698 0.61449164 0.77319 0.7188705 -0.33376095 -0.10156109 -0.93793017 -0.89502364 -0.6508558 -0.18708225 -0.52335817 -0.40387097 1.35589 -0.16393377 0.060491335 0.90304446 -0.79851604 -1.2612892 1.4141215 -0.031607743 -1.1660588 -0.07557192 0.7640444 0.18163715 0.25539517 0.04813935 0.60738206 1.22059 -0.6838975 0.18153095 0.7949463 0.64936453 -0.4400774 -0.015724063 -0.061938085 -0.29579505 1.0765625 1.356184 0.2185189 0.84375036 0.94333214 -1.3896916 0.4801885 0.009843554 -0.04633382 0.3563894 -0.2385884 -0.34696323 1.6682419 0.18438277 -0.66409487 0.23919211 -1.5158156 -0.8626176 -1.1117506 -0.18435544 0.7012807 1.2881023 -0.57204056 1.6895776 -0.64500564 -0.014847054 0.20030367 0.062437717 0.25039536 0.8368484 -0.21301256 -1.4948132 -0.030808412 0.49829027 0.08330183 -0.23870547 -0.029209293
people 0.17760234 -0.37207764 -0.6119216 0.3172486 0.2248892 -0.14643432 0.29935193 -0.25586647 0.94859713 -0.6888219 0.017000014 -0.012387516 -0.20013922 0.7534124 0.37425858 -0.15968391 -0.11835634 -0.25462365 0.34944668 -0.13843901 -0.02028396 0.11893908 0.39224073 1.1305866 0.091838025 0.28745988 -0.08493008 -0.25471285 0.30134732 0.6206707 0.4122226 0.30182955 0.019750843 -0.10335064 0.13462132 -0.20025183 0.4089929 -0.38698837 -0.77263457 -0.22395937 -0.3999059 0.07010402 -0.11733241 -0.64730525 -0.15230416 0.5565914 0.22322638 -0.23017722 0.3102897 -0.0013117803 0.10529674 -0.1800456 -0.044207565 0.80046123 0.2970204 0.21578571 -0.24617599 0.11508255 0.28091124 0.042765982 0.9403492 -0.8389128 -0.7102623 -0.15705386 0.8055997 0.11803211 1.0975996 0.34921587 -0.56923383 0.023636127 -0.23611079 -0.3877129 0.030681308 0.08766622 -0.2169113 0.6117986 -0.59369946 0.099226266 0.9100515 -0.09251593 -0.48187494 -0.3420019 -0.2719132 0.58252954 1.4496874 -0.10128983 0.55338347 0.0042030336 -0.12598798 0.116837725 -0.65563124 0.5089383 -0.12101867 -0.4703688 -0.075715594 0.19226144 0.24632145 -0.17614289 -0.7079198 -0.18523334
pray 0.17079568 -0.020780416 -0.11421477 -0.26620775 -0.49364188 0.11741972 -0.16149 -0.4578808 0.75063133 -1.3971503 0.4676512 -0.1180463 -0.42834902 1.3119968 0.90312386 -0.9249395 -0.13173462 -0.5027509 0.36351883 -0.11694308 -0.57071614 -0.5003026 0.65194976 1.4830383 -0.19109799 -0.27426684 -0.35852322 0.41531873 0.5542476 0.2243011 0.6300793 0.34159955 0.183813 -0.6313545 0.12559 -0.40392 0.26571938 -0.5638486 -0.5759837 0.089391716 0.101497695 -0.07102056 -0.19109662 -1.1920424 -0.06469033 1.031032 0.21235879 -0.30888087 -0.008684909 -0.2551103 0.02851409 -0.29234108 0.15923843 0.6329856 -0.06099382 0.4129625 -0.25059992 -0.4387818 0.14597954 -0.37982073 0.9363416 -0.6618872 -0.8748338 0.05579388 0.6918612 -0.0011966027 1.1054783 0.3836507 -0.25333038 0.24272563 -0.6896998 -0.12725845 0.39351386 0.24511582 -0.119539216 0.029363522 -0.5715744 0.0013221907 0.5869764 -0.15514068 0.06458588 -0.008548345 -0.1558503 0.5541695 1.5069156 -0.24911045 -0.088802926 0.010527041 0.07975074 0.012523843 -0.752277 0.07931422 0.05629053 -0.24828234 -0.36066124 -0.40201667 -0.059863083 -0.2951729 -0.84356564 0.013404356
flood 0.08227467 -0.30987886 -1.0449482 -0.025480999 -0.15919942 -0.5886052 0.15967204 -0.19057557 1.095649 -0.40105167 0.7223039 -0.38150623 0.7759888 0.7188509 -0.027933642 0.3175555 0.14566405 0.097052544 -0.45718876 -0.49394745 -0.15408805 0.63606775 0.1900704 -0.06501333 0.50166935 0.89678425 0.8196396 0.10534868 0.4150697 0.816665 0.5378565 -0.3851556 -0.361621 -0.48362115 -0.5874207 -0.5038881 -0.038940623 0.2246496 -0.29391915 1.039491 -0.118809804 -0.49372566 0.7013284 -0.3883615 -0.5219569 0.80506563 0.055482388 -0.93782574 0.17123412 0.5561271 -0.007753294 0.31983256 0.19907725 0.2216217 1.2154633 -0.6294494 0.103043444 0.51870877 0.45852318 0.012075586 -0.007902824 -0.025867518 -0.54869217 0.7053495 0.64792407 -0.1050963 0.013976828 0.6531168 -1.0831187 0.07451029 0.59554434 -0.64633644 0.07048444 -0.042287037 -0.5610792 1.4404354 0.4140706 -0.86856276 0.47279558 -1.3299497 -0.17377545 -1.0447239 -0.35426262 0.8259784 1.2179143 -0.5749734 1.9154491 -0.7897866 0.20216091 0.20490147 0.32016236 0.8347315 0.39402798 -0.1464001 -1.0420243 -0.22336763 0.685673 -0.1491022 -0.30999985 -0.161448
praying 0.23078236 0.11509049 -0.23915261 0.13477652 -0.3635226 -0.034557067 -0.3859755 -0.57454324 1.8058585 -1.8364131 0.28322697 0.31485203 0.077821925 2.4428654 0.89312434 -0.9024979 -0.3815767 -0.4331649 0.3169247 -0.5322237 -0.30523443 -0.07097516 0.6477616 2.0496612 0.22252887 0.5064888 0.58801794 0.3181458 0.48793912 0.557337 0.9675014 0.24813181 0.01697623 -1.0953513 -0.9870919 -0.110184856 -0.34177017 -1.3121192 -0.67487013 0.9589686 -0.1261145 -0.23105282 -0.20047471 -1.1949626 -0.5212382 1.0914026 0.3454114 -0.5949926 -0.44132105 -0.56572634 0.1481912 0.034054063 -0.11132984 0.63273525 0.04904546 0.43108243 -0.7438389 0.8326008 -0.24684793 -0.08148063 0.58410865 -0.5844077 -0.53764534 0.53424394 1.1288337 0.28331327 0.9096284 1.1211772 0.062169824 0.23902494 -0.7763664 0.2361994 0.53978914 0.27548185 -0.32025254 0.23727357 -0.3892698 0.084401205 0.9909913 -0.5456299 -0.037925784 -0.10692688 0.41122538 0.87529486 1.7378098 -0.052252598 -5.9904196e-05 -0.21883102 0.37348658 1.0837059 -0.99420744 0.19617046 0.7330725 -0.5244531 -0.60727906 -0.083499275 0.3316104 -0.19503953 -0.77170557 -0.1703039
safety 0.34793392 0.28331086 -0.6411982 -0.0053730668 -0.6116108 0.23433109 -0.4636955 -0.5319841 1.7082618 -1.8307737 0.23753531 0.19323581 0.032700747 2.1542177 0.8127892 -0.9041666 -0.77115744 -0.1733602 0.43832725 -0.5106039 -0.08479028 0.05803468 0.84363407 2.1027472 0.29952016 0.61633825 0.57715243 0.545273 0.46449608 0.32541665 0.6780907 0.07492881 0.3102508 -0.94232804 -0.819505 -0.14278017 -0.2481843 -1.4032415 -0.5348824 0.9391073 -0.18047419 -0.14613537 -0.021103648 -0.9919715 -0.46627748 0.7869914 0.4967298 -0.62989956 -0.5853598 -0.5406612 0.041765366 0.13862538 -0.07239944 0.60496175 0.28163815 0.45836353 -0.7992439 0.7754056 -0.2229483 -0.31036913 0.6098041 -0.7271212 -0.640093 0.5478843 1.447132 0.24485675 0.9070256 1.2253195 -0.1654707 0.28045705 -0.88535 0.43306994 0.49698988 0.12044569 -0.18087213 0.5064104 -0.3115209 -0.043257974 0.96871275 -0.77241325 -0.26750177 -0.2055135 0.37282485 1.0403516 2.1718996 -0.27699274 0.1987173 -0.4050428 0.39595193 1.0123338 -0.9542447 0.17280242 0.5946865 -0.63738346 -0.9855143 -0.3519806 0.15750144 -0.20711759 -0.97739077 -0.18214272
everyone 0.25028804 0.21679135 -0.24916606 0.044706907 -0.411206 0.2336491 -0.49245256 -0.32414258 1.3217407 -1.5996202 0.15975568 0.07713275 0.06890608 2.0840178 0.8189079 -0.72897494 -0.69229335 -0.14574099 0.57955223 -0.54463863 -0.23409699 -0.12917879 0.81166947 1.7905666 0.26857337 0.38568056 0.4805868 0.679305 0.4872343 0.17609347 0.73073035 0.19164027 0.45704022 -0.9893696 -0.6421299 -0.19264846 -0.44490167 -1.3741262 -0.36083022 0.53269756 -0.12650652 -0.19610022 0.07829519 -1.2383273 -0.28452092 0.9102376 0.42449638 -0.41363573 -0.5403997 -0.55246264 0.37028486 -0.12900558 -0.08103554 0.6754923 -0.14664268 0.46018603 -0.75744814 0.4581757 -0.33387533 -0.20077837 0.85288024 -0.5814556 -0.72139275 0.55297214 1.2706538 0.40345225 0.98624295 1.1029834 -0.001664096 0.32632783 -0.97253746 0.42345703 0.2819706 0.044108845 -0.21546915 0.09418495 -0.45561486 0.4768286 1.1157565 -0.27079585 -0.14707597 0.008340261 0.29986888 0.7516327 1.7508426 -0.18301642 -0.26619488 -0.023332005 0.525829 1.1339657 -0.9078853 0.1819397 -0.011978203 -0.4493874 -0.6467441 -0.40973336 -0.014355299 -0.1698744 -0.9996117 -0.3004736
please 0.8090876 1.3164514 0.3383442 -0.13759947 -1.1106503 0.32484803 0.0037230982 -0.5041347 1.4892186 -1.515674 -0.70391995 0.78150076 0.08090167 0.9320458 1.6279867 -1.8018373 0.6842664 -0.45125678 0.2662814 -0.03996895 0.08987642 -0.96257323 -0.6263743 1.0902733 0.33884734 -0.81019235 -0.32095048 0.30077463 0.66130555 0.4901006 0.5132638 0.7336784 0.108681165 -0.24751809 0.53979933 0.31795865 0.6755838 -0.4755469 -0.45266432 -0.11826865 0.18985698 -1.6332425 -0.35646543 -1.3287102 1.518757 1.2008356 0.9629517 0.5409378 -0.6286012 -1.1485227 -0.923248 0.09870603 0.68694466 0.038955465 -0.31588668 1.5099669 -0.92658335 -0.7663795 -0.7687971 0.19323169 1.3021659 -1.1927677 -1.0681943 -0.00011488957 0.1738283 -0.22740668 0.55480754 0.37208918 0.7408793 -0.66391206 -1.0673693 -0.35785043 -0.053323805 0.87099296 -0.28234392 -0.4675579 -0.69767463 -0.26761526 1.299102 -0.7695699 0.9327762 0.024245398 -0.0158914 1.6736465 1.5447273 -0.56484956 -0.076047614 0.054406352 0.40798837 0.43607035 -0.5498118 0.60159856 -0.4991405 0.08456096 -0.070048735 -1.4067838 -0.79997665 -1.1542864 -1.5172983 -0.16124907
safe 0.14450783 0.33011317 -0.45293346 -0.24193487 0.09458236 -0.015266527 -0.6508848 0.109925814 0.8368589 -0.7924245 0.54708725 -0.20854169 -0.004443264 1.4650245 1.2451091 -0.54048926 -0.69124055 -0.34679437 0.25987905 -0.17258653 -0.44529757 -0.00035189133 1.3626254 0.9987739 0.1421647 0.5156734 -0.36409047 0.75247663 0.86660767 0.17677276 1.0665412 0.6505819 0.74682194 -0.77727026 0.2394277 -0.62542814 -0.40146038 -0.73468214 -0.41741177 -0.54652345 0.06308468 0.510355 -0.082860336 -1.716517 -0.70276797 1.6093022 0.2982405 0.0999907 -0.24660093 -0.40724373 0.73034614 -0.5212546 -0.06678734 1.073245 -0.39671862 0.17217155 -0.24372935 -0.61569405 0.110035814 -0.07252702 1.0797881 -0.65649563 -0.9597765 0.69815654 0.64271224 0.402446 0.92206943 0.44165292 -0.7737785 0.45635533 -0.5991638 -0.03260334 -0.33091724 -0.12810357 -0.37088057 0.010379596 -0.7802688 0.7273282 1.0029005 -0.2473782 -0.34158522 -0.28907025 -0.05132988 0.48011655 1.2652891 -0.36131892 0.06688977 0.52901816 0.3848093 0.13957606 -0.6100506 0.22487377 -0.9816081 -0.26242197 -0.1846901 -0.3428996 -0.44075465 0.011427685 -0.6948208 -0.5905213
area 0.6765111 -0.17714989 -0.6567687 0.7831764 0.66664505 -0.8947659 0.6606241 -0.12981768 2.231354 -0.7556317 -0.6014173 0.69610876 0.078833796 0.7570087 0.087437116 -0.36538184 0.9724068 -0.3518902 -0.24382287 0.22366484 0.21627975 0.55001503 -0.6690521 0.97000873 0.8183676 0.66601115 0.12218713 -0.8554155 0.27348816 2.0383685 -0.06448162 -0.02372398 -1.2175251 0.12554552 -0.38507468 0.24372512 0.6652378 0.18885621 -1.2414324 0.6179391 0.12476969 -0.67471695 -0.7374785 -0.46387982 0.50502455 1.0499449 0.7038012 0.32770038 0.17654859 0.4531959 -0.41000196 0.5080754 0.6133628 0.58476156 0.8849572 0.5408532 -0.47180685 0.3213204 -0.18632379 0.6095635 0.20362523 -0.96454185 -0.48595127 -0.10208857 0.55263376 -0.4344258 0.26041195 0.31599584 -0.2355148 -0.5864158 0.19330275 -1.1021309 -0.77453476 0.69587314 -0.7451349 1.7275099 -0.27380866 -0.71729285 0.7341991 -1.2943311 -0.5812769 -1.6289291 -0.4514999 1.7401974 1.0447456 -0.4536299 2.0066812 -0.846565 -0.70452833 -0.0577379 -0.23769851 0.70474476 0.5400296 -0.43887985 -0.17905538 0.38100904 0.46469125 -0.5858381 -0.51916707 0.47810405
water 0.23769182 0.18542235 0.7501858 -0.4847516 0.53223723 -0.73054826 -1.424163 0.21166782 0.5395207 -0.26296216 2.139739 0.22017865 -1.2356939 2.1941268 1.0262437 -0.6283766 1.3957038 -1.6869442 -2.1802747 0.38379425 -1.4171412 -0.15946339 1.0739968 -1.8136976 -0.8597223 0.45931754 -0.9431943 -0.08867503 -0.09571904 0.80454516 0.91560745 -0.5437888 -0.9683477 -0.79282314 -0.5225205 -0.036679227 0.2404471 1.2220619 -0.9586651 0.6911813 0.7930171 1.0489179 -0.4595448 -0.47097224 -1.6231235 2.2551231 -0.6116087 1.605015 -1.1205376 0.9292583 0.14571771 0.294004 0.7197095 -0.37027234 1.1016706 -0.31121743 1.1824907 -0.49048084 0.54517907 0.14339098 -0.9835109 -0.19131686 0.6022384 1.4739736 -0.24535051 -0.15861766 -0.32146668 -0.12271118 -0.8455524 -0.27591488 -1.7654644 -0.6918346 -0.7660667 1.5623659 -0.81525284 1.0415136 -0.4306583 0.3891251 -0.3234462 -1.4686755 -0.03557671 -1.9356123 -0.8254407 1.1941265 -0.11850461 -3.0839453 3.129603 -0.9795699 0.7299374 -0.2517687 0.55560267 0.26636127 1.3365494 1.3893229 -1.6733992 -0.0038742826 -0.9161226 0.9277645 0.7575255 0.34544843
burst -0.3378282 -0.48935923 -1.2277552 -0.14067554 0.11723285 -0.35971352 -0.23649451 -0.30945978 0.9935964 -0.80017966 1.0221493 -0.4469245 -0.09904462 1.8443124 0.38309935 0.11942892 -0.64867747 -0.14667904 -0.32513028 -0.43570292 -0.45570406 0.34499303 1.0411929 0.8623596 0.054376084 1.2248721 0.694778 0.35428596 0.21672744 0.56113386 0.6116539 -0.20598349 0.15617582 -0.6339311 -0.6854382 -0.7423235 -0.03761526 -0.3924632 -0.6267668 1.1804694 -0.19465473 0.4002487 0.7494192 -0.6966889 -1.4652126 0.87254375 0.036060296 -0.820036 0.38716173 0.80488855 0.3042344 -0.024172345 -0.37346828 0.7408155 0.6115563 -0.7993641 -0.0056815045 0.65246356 0.7346597 -0.24021131 -0.2746805 0.20670298 -0.34689382 0.37185088 0.8819528 0.12577234 0.34372514 0.98277056 -1.5403438 0.653451 -0.049886853 -0.12278269 0.09382281 -0.21261327 -0.22797704 1.0606456 0.3392996 -0.44677058 0.33783862 -0.8481209 -0.7504623 -1.0778818 -0.036574934 0.45198306 1.8091248 -0.53548855 1.528431 -0.65754646 0.20358224 0.48092243 -0.30326796 0.17447296 0.5945691 -0.2500899 -1.068941 0.07242122 0.5348851 0.31745192 -0.5372619 -0.27190128
andamp 0.36937544 -0.18811716 0.027267668 -0.07528522 0.58936936 -0.50636506 -0.7374689 0.503345 0.4999918 -0.056697823 0.5096101 -0.06789785 0.38748583 1.3710557 0.06834599 0.24630918 -0.14716697 -0.07027066 -0.02778553 -0.57576513 -0.3834551 0.55657756 0.748007 -0.10203904 0.54787016 1.150857 0.3454789 -0.06997836 0.083350904 0.73434865 0.57659936 -0.3715935 -0.16000926 -0.6078986 -1.2587379 -0.13435237 -0.9234951 -0.023857132 0.17628533 0.38815695 -0.0071509723 0.4170287 -0.29799452 -0.27298835 -0.7767664 0.8325527 -0.19584388 0.11091474 -0.5886218 0.2462746 0.78747994 -0.1446761 0.17798026 0.17475416 0.43216 -0.32078046 0.13372947 0.45090064 -0.23960696 0.24080849 -0.31307808 0.12691624 0.3482588 0.9049609 0.7776807 0.31185684 0.21249664 0.81945413 -0.5966038 0.082631 -0.24877481 -0.057904415 -0.26277038 0.06305334 -0.42043802 0.64155704 0.025152173 0.45317987 0.65123683 -0.6328392 -0.49804628 -0.601311 -0.10831142 0.30337396 -0.011030658 -0.71810395 0.94302773 0.034106754 0.3258852 0.85909504 0.047690183 0.12554793 -0.3002527 0.27295738 -0.87116545 0.06789723 0.25993973 0.6719841 -0.1236666 -0.10701289
may -0.15822525 0.08786301 0.75225586 -0.029416915 0.24185047 0.29630047 -0.9879056 -0.01477177 0.57591635 -0.961675 0.6798043 0.23812918 -1.9220858 1.49969 0.7786616 -0.38238207 0.0013367052 -1.7017123 -0.118804984 0.44315356 -0.454645 -1.1668675 0.7796876 0.56934905 -0.6831237 -0.4298457 -1.2227943 0.027671821 -0.021316366 0.027571632 0.8385922 0.3867066 0.05571573 -0.19652724 0.41782865 -0.04941417 0.68101627 -0.11634392 -1.1865954 -0.796378 0.1604078 1.2383726 -0.78871214 -0.89517415 -0.86591244 1.077857 0.09572794 1.1089911 -0.5384707 -0.23162542 0.053942084 -0.62357146 0.09561307 0.5187392 -0.254758 0.3197891 0.05221378 -0.78257775 0.4286432 -0.2354805 0.2986721 -1.1152639 -0.60248584 -0.097457774 -0.14754069 -0.054909535 0.67737675 0.1326225 -0.089174226 0.31008428 -2.0791724 -0.56949484 -0.3748333 0.4003291 -0.3149527 0.059385214 -0.71783423 1.6655798 0.62135375 0.8218836 -0.7226329 -0.29470727 -0.16428682 0.46069998 0.8905782 -1.1202451 0.49519768 0.4916046 0.21734852 -0.40465635 -0.9355421 -0.43010595 -0.017244127 -0.062497202 0.14182286 0.13077255 -0.6824145 0.7485011 -0.37755778 -0.20003821
difficultstrict 0.17193489 -0.13237086 -1.3302835 -0.67474514 -0.58271945 -0.31236103 -0.20206785 -0.5831331 1.1087776 -1.011368 1.382325 -0.63716954 0.045998763 1.3184117 0.50224435 -0.7666263 -0.15077065 0.19168775 -0.93035644 -0.1605628 -0.94357973 0.49687922 1.1935954 0.59438336 -0.22264414 0.6539321 0.5528908 0.9463926 0.6691855 0.60383224 0.2677446 -0.55860037 -0.14002968 -0.9806443 -0.37570965 -0.8911107 0.29875985 0.078126036 -0.34748888 1.7890611 0.34425205 -0.22480792 0.81111544 -0.77778184 -0.93725014 1.6116261 0.051066995 -0.9042045 -0.07633308 0.96254766 -0.28441438 0.44044527 0.26022926 0.43846878 1.2301968 -0.4439402 0.38895378 0.089314826 0.91145647 -0.5953815 -0.01791683 0.23971166 -0.36608735 0.95097935 0.9736861 -0.2950153 0.32191417 0.43175092 -1.3758072 0.30783466 0.16136278 0.00051338656 0.3859925 -0.05954051 -0.3294561 1.5009339 -0.0025157286 -1.5596777 -0.37549865 -2.0132089 -0.28935277 -1.3048383 -0.6486684 0.9421003 1.5206298 -0.9001004 1.8601913 -1.4203968 -0.042753223 -0.44410038 0.42919812 0.3844466 1.335916 0.128748 -1.8151147 -0.41034266 0.22398396 -0.48890135 -0.18921596 0.3108145
difficultsaster 0.34376895 -0.2180423 -0.10933519 0.43915752 0.010350674 -0.3242554 0.40570524 -0.31274515 1.0183731 -0.8366622 -0.3577543 0.40482265 0.77778596 0.9495032 0.3691209 -0.23192541 0.34972647 0.023514813 0.6326858 -0.62378067 0.16039807 0.12389996 -0.4981511 0.5247056 0.65587926 0.42731625 0.4516037 -0.5487166 0.30702406 0.60857075 0.659578 0.3712186 -0.21094076 -0.20769681 -0.5745368 0.21708587 -0.4785498 -0.608847 -0.4352005 0.15646791 -0.37705943 -0.84689873 -0.036009453 -0.7257378 0.5672273 0.23323497 0.2383832 -0.39915654 0.23393098 -0.46274608 0.21947418 0.102399305 0.3209617 0.10693632 0.2256068 0.37280798 -0.5584705 0.6052217 -0.589275 0.4055893 0.6816794 -0.6160069 -0.4218808 0.13884571 0.72753894 0.17518361 0.8136372 0.69062895 0.05369873 -0.32739523 -0.17105392 -0.3295102 0.023565086 0.51612955 -0.23163001 0.22642824 0.14207785 0.027308928 1.1268026 -0.30282745 0.49173704 -0.14915295 0.25632387 0.65408736 1.000788 0.05393123 0.2730023 0.12027311 0.27238047 1.1501601 -0.5511116 0.65082777 -0.4352856 -0.37020046 -0.17371933 -0.28202754 0.35155863 -0.20931219 -0.90567815 -0.22408535
level 0.17128986 0.3071162 0.7568058 -0.56067806 0.388257 -0.6479654 -1.493527 0.015898108 0.47254094 -0.3308305 2.2704508 0.19296165 -1.3788719 2.219559 1.1047436 -0.78731173 1.3521487 -1.825405 -2.2857225 0.39077035 -1.4655039 -0.38328558 1.1340388 -1.8263928 -1.0102196 0.34031042 -1.0217375 -0.00023589471 -0.079139225 0.62322664 0.98330635 -0.54712313 -0.88485795 -0.79391825 -0.41574287 -0.039964594 0.3455615 1.1721481 -1.0072695 0.73882306 0.7605433 0.9796502 -0.3880118 -0.53352773 -1.6964914 2.2919824 -0.5947559 1.6218809 -1.1535627 0.872729 -0.014037586 0.296166 0.70118856 -0.3881076 1.1291392 -0.33607495 1.1418122 -0.54570025 0.6920402 0.0350108 -0.9586411 -0.2570336 0.52281326 1.4326684 -0.2696535 -0.21871167 -0.32637355 -0.13067348 -0.8339808 -0.2718779 -1.9819727 -0.73303574 -0.65302235 1.6398634 -0.7806067 1.0087965 -0.43962422 0.36740553 -0.2499308 -1.4476948 0.082896486 -1.8707103 -0.8280418 1.2780933 0.10574453 -3.2837112 3.198343 -1.0713438 0.8403581 -0.18631017 0.46921614 0.23252486 1.4707013 1.4841536 -1.7665707 -0.06184931 -1.0445032 0.9076254 0.65435505 0.3540239
joshimath 0.098973505 -0.019634401 -1.0569457 -0.23304497 -0.19043845 -0.40210915 -0.16391724 -0.297593 1.2409736 -0.5210694 0.99302 -0.23072982 -0.04851573 1.0565392 0.35442483 -0.30367887 0.051395923 -0.19063005 -0.99721926 0.06087926 -0.3905 0.41177636 0.70216787 0.24409883 -0.016483733 0.8273021 0.5228075 0.40547165 0.35047594 0.87410635 0.2959247 -0.3623561 -0.30530927 -0.65549046 -0.3254842 -0.4367992 0.3475707 0.16686717 -0.48146293 1.2328222 0.18319206 -0.1280458 0.61665136 -0.42254984 -0.8631684 1.2864349 0.08888646 -0.39222056 -0.24116242 0.814812 -0.3303149 0.45927837 0.08778471 0.25843477 1.0169103 -0.37039155 0.22038308 0.3213976 0.55706245 -0.23960115 -0.3405946 0.022403056 -0.21398583 0.7109247 0.46728832 -0.24029915 -0.1375036 0.4238211 -0.9729625 0.08710046 0.09092347 -0.25857398 0.059408054 0.049935352 -0.4048575 1.4413173 0.02406457 -0.9549845 -0.002467275 -1.5957097 -0.5537591 -1.3512125 -0.38061172 0.9720813 1.113454 -0.9267954 2.0118964 -1.05624 -0.00078711624 -0.290539 0.32703516 0.36019966 1.1152494 0.06999077 -1.2221029 -0.10217378 0.21327268 -0.20263733 -0.019068055 0.1380062
affected 0.45075855 0.19344176 -0.65292525 0.81144977 0.13721225 -0.1884334 0.02602496 -0.24119481 2.3877687 -1.4237076 -0.5992483 0.68722683 -0.3917022 1.3535022 0.38425893 -0.34156057 0.26891008 -0.7476374 0.23369889 -0.0651335 0.4013043 -0.393198 -0.23563021 1.5136158 0.77807194 0.54205155 0.28890553 -0.39250633 0.27951905 1.2835017 0.5797261 0.3058236 -0.33397558 0.012328578 -0.33695894 0.13825838 0.56979424 -0.6076229 -1.2974737 0.44268373 -0.18948035 -0.49287862 -0.26862922 -0.85651654 0.2430145 0.9254315 0.7826455 -0.059238903 -0.15793842 -0.26028478 -0.57506275 0.07546298 0.3000527 0.7866889 0.55367374 0.53823215 -1.069968 0.4463019 -0.15823238 0.15018424 0.55217767 -1.4303688 -1.1747111 -0.1290369 0.686755 -0.22443756 0.37430644 0.87217623 0.016870385 -0.18020998 -0.7767921 -1.0968364 -0.45023426 0.23057385 -0.6991978 1.2053739 -0.016346255 0.16215098 1.436073 -0.50399745 -0.8691667 -0.83125854 0.12225453 1.5079868 1.9681263 -0.1994532 1.175125 -0.17445739 -0.115291126 0.24375586 -0.87992156 0.34583512 0.058235455 -0.8278078 0.037069738 -0.1370822 0.28801993 -0.32760784 -1.1267027 -0.23681465
help 0.99496317 1.3852664 0.7690007 0.59918785 -0.6656382 0.0051350994 0.032079574 -0.4100899 2.225158 -1.7407409 -1.3035712 1.4291772 0.015161791 1.2947325 1.5155896 -1.601023 1.4045825 -0.99323535 0.14639822 -0.08359522 0.502428 -1.2384155 -1.3673778 0.7802372 0.75434935 -0.64259726 -0.33790982 -0.45545867 0.2691809 1.1589884 0.8811344 0.90605664 -0.50248027 -0.01138449 -0.010610022 0.8883776 0.6496188 -0.30693915 -1.0962682 -0.046861965 0.14074656 -1.8872336 -0.83164704 -1.2504851 1.739055 1.2616729 0.98626006 0.9786064 -0.81285524 -1.4052281 -1.210566 0.30924782 0.84226936 -0.1692083 -0.10791773 1.6584483 -1.2912055 -0.3163895 -1.3448381 0.6523299 0.9684836 -1.7804925 -1.038511 0.0035301223 -0.20180398 -0.3681045 0.11574557 0.47719735 1.3699956 -1.0975991 -1.3963493 -1.033623 -0.50027674 1.1982166 -0.6838133 -0.2519474 -0.41518 0.18950856 1.7475553 -0.64608496 0.8687449 -0.2573662 0.21117416 2.1041067 1.3988047 -0.64448196 0.4692882 0.27892292 0.48657587 0.7689971 -0.79293174 0.7051497 -0.37881723 -0.113136284 0.3169308 -1.1056743 -0.666022 -1.0253751 -1.4447055 -0.30552685
stay 0.15153842 0.70276666 -0.21172173 -0.52655596 -0.04142053 0.2600401 -0.851235 0.02828832 0.8100749 -0.8426898 0.47092617 -0.5404845 -0.06819899 1.6947402 1.414086 -0.5995079 -0.61461306 -0.59472454 -0.19635573 -0.34203365 -0.27588615 -0.03887765 1.5013841 0.70270216 -0.15607658 0.4423906 -0.25864553 0.9255578 0.7691728 0.11240567 1.2321566 0.5682567 0.6925598 -0.973308 0.26153 -0.7220017 -0.2417404 -0.6717199 -0.3646042 -0.568372 -0.11534385 -0.11321469 0.17915806 -2.101815 -0.7163147 2.20182 0.43727973 0.44850546 -0.44862106 -0.42632002 0.7736208 -0.60657674 -0.081489645 1.0472562 -0.47149915 0.14108214 -0.22022544 -0.7550973 0.12670147 0.15699638 1.0912511 -0.35077703 -0.66943836 0.60761607 0.46310645 0.46055275 0.59612095 0.7127004 -0.7432081 0.48545888 -0.48028618 0.21724473 -0.32680094 -0.24029815 -0.56232053 -0.31237563 -0.84685475 0.85342735 1.08476 -0.17874447 -0.27795234 -0.1778877 -0.24861573 0.6306026 1.1130506 -0.26733172 -0.09275928 0.604522 0.7571162 0.41507825 -0.364366 0.4021835 -1.0447265 -0.11048909 0.015959376 -0.62436146 -0.7017901 -0.11056903 -0.8111907 -0.927008
itbp 0.15953352 -1.1218895 0.060875162 -0.06877529 0.10799242 -1.6398445 1.9067925 -0.28006133 0.5512114 -0.5516294 -0.0035016257 0.8412613 1.8314385 0.08004538 0.114812694 -0.3832618 1.9153658 0.34029946 0.3575663 -0.60796106 -0.5174393 0.81133723 -1.3706261 -0.53496873 0.4720112 0.49354202 0.11738122 -2.0575008 0.26937345 1.7001297 0.24076185 0.6827534 -2.091595 0.07636879 -0.41361746 0.089979775 -0.2414939 0.7421739 -0.37615848 0.705728 0.13518526 -1.4038469 -0.5488361 -0.7514128 1.0395315 0.58047503 0.5432396 -0.6843572 1.6876768 0.09704308 0.35019088 0.2447311 1.4320619 0.15960379 1.1717546 0.1713082 0.22104827 -0.4508057 -0.20281588 0.83433455 0.80048215 -0.22821642 0.06193821 -0.2005937 0.9334539 -0.30259624 1.1653502 0.38418743 -1.1810695 -0.88418156 1.3376005 -1.3562968 -0.32277247 1.9985387 -0.26692158 0.7387339 0.08809099 -1.9808594 0.5158718 -1.5008175 1.8456787 -1.3106649 -0.6286014 1.6252781 0.7798564 -0.78371453 2.1525416 -1.0298811 -0.7794536 1.0784967 0.27394545 1.9194802 -0.30551094 0.6172822 -0.3163435 -0.29728994 0.5246292 -0.481536 -1.5012884 0.8785373
hope 0.1357451 -0.31683013 -0.33242407 0.06913682 0.18144996 0.0013719882 -0.37664637 -0.22589582 0.823836 -1.1402605 0.3542232 -0.35818526 0.07742349 1.7491595 0.53459024 -0.105814695 -0.6646306 -0.40708277 0.6419687 -0.7449048 -0.18882589 0.23835431 0.9938064 1.251595 0.18374488 0.6347841 0.14382985 0.20771675 0.54098123 0.15982352 1.0997554 0.34055585 0.37044564 -0.748491 -0.45268103 -0.52556086 -0.64372635 -0.9789348 -0.64177346 -0.17738986 -0.3871337 0.23217179 -0.049324658 -1.5348564 -0.6323381 1.0739782 0.09348386 -0.32150334 0.10468502 -0.29590705 1.0444597 -0.49654004 0.07156391 0.9486453 -0.04527787 -0.085837655 -0.3760722 0.32051873 0.04000848 0.04688879 1.091768 -0.5843337 -0.743473 0.44052953 1.2011639 0.52959675 1.3972833 1.0310144 -0.69213665 0.54928654 -0.5089769 -0.009019292 0.100125514 -0.024368398 -0.4134527 0.26398802 -0.3652035 0.87300235 1.1760426 0.24233527 -0.2935833 -0.09963506 0.054798733 0.37811044 1.5556455 -0.012495643 -0.054312 0.36972576 0.4954952 0.9619153 -0.96765125 0.34732628 -0.62683856 -0.5921948 -0.27429822 -0.12497696 0.1501444 0.32091808 -0.9995468 -0.5693171
god 0.16649877 -0.03748378 0.41825274 0.19716863 0.035986107 0.19307268 -0.34252107 -0.25302604 0.99289775 -1.3849953 0.034856215 0.5125962 -1.1114311 1.657299 0.809415 -0.6381501 -0.009206542 -1.1834115 0.7365606 -0.04515785 -0.28604674 -0.75831205 0.50890225 1.5356146 -0.19048044 -0.27891707 -0.86659265 -0.10090849 0.27599066 0.22713205 0.7300981 0.54590815 0.14599884 -0.13317528 0.21959482 0.010262647 0.3388672 -0.7524287 -0.98870873 -0.70072395 -0.123897776 0.6468654 -0.7712519 -0.9142804 -0.18135202 0.6743292 0.34144115 0.42492676 -0.33719772 -0.70734817 0.15704831 -0.4392462 0.07936459 0.66942555 -0.31015265 0.71135634 -0.5406475 -0.3075721 -0.042076237 -0.1179569 0.9066106 -1.3772138 -0.9589961 -0.24789728 0.50390595 0.027969241 1.3703529 0.43692183 0.18106918 0.1880467 -1.7217131 -0.42659992 -0.13133112 0.44254455 -0.14239386 0.027306015 -0.76055133 1.3027383 1.0544409 0.77751964 -0.524741 -0.034817 0.06471433 0.51612705 1.5189577 -0.47003895 -0.024959108 0.52988243 0.16447222 0.24994221 -1.2717474 -0.11838283 -0.32499808 -0.37087616 0.078140184 0.085084066 -0.2843952 0.25835797 -0.9781944 -0.20977059
1070 1.0013684 2.3042324 0.32352182 -0.67219937 -1.9502814 0.24854478 -0.3650987 -0.62860835 2.0204778 -1.8627429 -0.411503 1.0803839 0.7749592 1.788269 2.3201456 -2.4896054 0.9175449 -0.20218478 -0.8003427 -0.37465918 0.08535382 -0.9355355 -0.38442627 0.28689885 0.31105497 -0.44860482 0.34465042 0.84508324 0.65087473 0.7110935 1.1770515 0.8074122 -0.093881555 -1.0070081 -0.1786246 0.4433782 0.20845611 -0.3654184 -0.23801297 1.222851 0.38771078 -2.684425 0.15648337 -1.5448035 1.1888492 2.2120728 0.9355095 0.60134816 -1.492896 -1.4431891 -1.5244418 0.56013 0.6537527 -0.53562725 0.15088326 1.5572889 -0.85989064 -0.61220556 -1.1902093 0.13540561 0.89412445 -0.87417454 -0.5508231 0.95778245 0.0543607 -0.29668874 -0.5879246 0.7156345 0.6568658 -1.0914122 -0.930352 -0.10739525 0.16627018 1.0828562 -0.5447191 -0.67275226 -0.46750438 -1.1178235 1.2102779 -2.42815 1.7833997 -0.27938873 0.066044256 2.4082806 1.6223829 -1.2293566 0.7091548 -0.48637068 1.0610968 0.9544756 0.074688874 1.0698153 0.26893938 0.50545233 -0.9345525 -2.0538359 -1.2461812 -1.5768877 -1.2685486 -0.31018707
scary 0.14987709 -0.21404305 -0.6885462 0.03969733 0.40097952 -0.038358085 -0.7373944 -0.26004326 0.8701894 -1.0684137 0.8157855 -0.38955978 -0.30728763 2.0425308 0.55783767 -0.5248425 -0.5510637 -0.0138467895 -0.03303801 -0.5242222 -0.8358265 0.23128143 1.5737144 1.2523309 -0.2889956 0.57552326 0.20991644 0.6479415 0.5370587 -0.19469132 0.5279655 -0.450472 0.5116433 -0.90247095 -0.663883 -0.55517036 -0.36416203 -1.0563259 -0.5434824 0.68398863 -0.14708376 0.6989091 0.13771595 -0.71140677 -1.2193292 1.0574305 -0.027716812 -0.15446612 -0.1818045 0.12807003 0.5363124 0.012874642 -0.17000337 0.7397448 0.26072472 -0.12213298 -0.29529542 0.4563815 0.54378116 -0.12317712 0.36778614 -0.13992135 -0.12531422 0.71851224 1.0933341 0.47171167 1.2277963 0.91137564 -0.58524096 0.611547 -1.079805 0.6766725 0.20455024 0.15638216 -0.23424011 0.38522336 -0.32056463 0.31102386 0.18647897 -0.31662014 -0.44891548 -0.22898263 -0.15616354 0.31581083 1.3322672 -0.3739124 0.09447668 -0.44997063 0.52922183 0.55772364 -0.55783224 -0.18459705 0.61217725 -0.17421527 -1.023747 0.1887848 0.07741591 0.14255771 -0.15545681 -0.19054233
avalanche 0.51383924 0.043893263 -0.8356095 -0.18274136 0.2939695 -0.79605573 -0.5017622 0.11317931 1.5592517 -0.6004424 0.8327863 -0.011513641 -0.017045755 1.7439061 0.1777772 -0.27707654 0.14120615 -0.25933325 -1.0694425 -0.33939627 -0.39762488 0.9338195 0.91141003 0.30110377 0.21491067 1.2069821 0.50239 0.33322698 0.19725178 1.3368661 0.32434788 -0.7550843 -0.7086309 -0.87604177 -1.0145714 -0.43012416 -0.05937404 0.23978657 -0.49914506 1.5945134 0.22867286 0.28080675 -0.13944241 -0.29085615 -1.2553159 1.7497442 0.1373772 0.052173022 -0.66714686 0.86162364 0.04054463 0.44532356 0.21815063 0.4054445 1.1288503 -0.32677418 0.21884161 0.5181666 0.39700562 0.08802529 -0.6982778 0.14609647 0.2677413 1.1546333 0.7194363 -0.17494062 -0.32194805 0.5616493 -0.8638365 0.12374186 0.19395764 -0.15405302 -0.21946608 0.03169253 -0.6020032 1.597638 -0.016859582 -0.81101483 0.029711992 -1.8322068 -0.82463497 -1.5438908 -0.533647 1.1747944 0.52092934 -1.166985 2.2472236 -1.141327 -0.19337325 -0.0031934164 0.4806108 0.43358222 1.3921312 0.24162738 -1.2496003 0.4118414 0.4534382 -0.01793285 0.3888888 0.27691877
visuals 0.023205273 -0.44346365 -0.85801023 -0.07118895 0.49635267 -0.08713302 -0.82914895 -0.4338526 0.93530554 -1.405685 1.2464772 -0.48624447 -0.59640896 2.5497599 0.5466995 -0.6186067 -0.70330924 -0.17475161 -0.19480163 -0.5372688 -1.1829362 0.29927766 1.9873377 1.7529494 -0.33530504 0.7178866 0.16920595 0.6607597 0.54373217 -0.02688086 0.6372829 -0.5216236 0.5094296 -1.0971599 -0.86033726 -0.7946683 -0.2994472 -1.1279645 -0.82815295 0.9339854 -0.06601858 1.0217193 0.06783693 -1.0416276 -1.6422001 1.3618766 -0.13338807 -0.39207333 0.0035656258 0.29464367 0.7346301 -0.08102943 -0.19712302 0.9839033 0.44358224 -0.18303268 -0.08583031 0.6057379 0.7442955 -0.34043062 0.4941502 -0.16311994 -0.2676776 0.7189041 1.4955745 0.3976726 1.4656801 1.1137065 -0.9792898 0.93577135 -1.2786075 0.5552717 0.4147136 0.18141046 -0.24518487 0.6802142 -0.43297246 0.18124792 0.10202817 -0.54219407 -0.7209081 -0.55563986 -0.12801091 0.20197617 1.7825791 -0.45684773 0.35575232 -0.5641151 0.452334 0.51593286 -0.93499744 -0.39099047 0.91427636 -0.29568353 -1.3616006 0.2738041 0.15465981 0.1949464 -0.3592875 -0.13287991
massive 0.31927988 -0.23388691 -1.3930277 -0.15472806 0.005471329 -0.71483725 -0.3565309 -0.34983984 1.4982649 -0.5000769 1.1031023 -0.40945527 0.22864157 1.3388875 0.28217885 -0.18435358 0.098655015 -0.24730785 -1.043498 -0.3930829 -0.47467953 0.82957107 1.0304724 0.17092514 0.2259459 1.1964436 0.67187417 0.26500407 0.5449334 1.1848137 0.69435227 -0.5269517 -0.4036949 -0.83738256 -0.63357073 -0.7023307 -0.03165874 0.30991095 -0.5766098 1.5682399 0.13149583 -0.008427841 0.544288 -0.6283018 -1.2210536 1.8099141 -0.10073188 -0.52492964 -0.2404095 0.92555887 0.061797146 0.4291663 0.19668658 0.54344 1.330285 -0.6705867 0.24991083 0.5389931 0.8313268 -0.105171464 -0.3369739 -0.048653614 -0.2177813 1.1080142 0.83166564 -0.22950445 -0.07115994 0.50428903 -1.203106 0.24534206 0.25125822 -0.42030928 0.05244807 -0.076582864 -0.70873135 1.8485975 0.10492912 -1.0795448 0.20950553 -1.6949301 -0.79576105 -1.4856529 -0.5909533 1.0237842 1.105911 -0.9602771 2.3299103 -1.0878267 0.01532645 -0.28472635 0.52789813 0.57480687 1.1894282 -0.018649591 -1.332495 0.1800407 0.6911047 -0.006628511 0.20091441 0.026555508
river 0.45126382 0.116605 -0.5007763 -0.48391294 0.39393157 -0.82649213 -0.7174065 0.07508451 0.87505746 -0.015574266 1.4848326 -0.3788892 -0.313391 1.1831447 0.45727935 -0.60844266 0.7557393 -0.36436307 -1.7656398 0.23654793 -1.010444 0.7715905 1.0325366 -0.8909235 -0.28746396 0.6542331 -0.2006469 0.5403672 0.41071323 1.0517322 0.10082411 -0.9686481 -0.7595913 -0.90482044 -0.44569668 -0.5801368 0.19855477 1.1001132 -0.4966168 1.2575564 0.8573465 0.40921077 -0.08949082 -0.30711842 -1.0620577 2.065292 -0.21724285 0.68389606 -0.7370879 1.3208143 -0.03835669 0.6439942 0.643447 0.0056230165 1.3014903 -0.28322276 0.95518225 -0.20644163 0.5989986 -0.04007075 -0.64549243 0.23801813 0.3995552 1.3345113 0.27100685 -0.2964349 -0.27672812 -0.24585125 -1.0352765 -0.27330223 -0.27120656 -0.25498137 -0.5404046 0.59829706 -0.76265776 1.7590868 -0.3561303 -0.8830211 -0.58939785 -2.109272 -0.3376337 -1.9511313 -1.140152 1.1761287 0.015292795 -2.0225234 2.8566315 -1.5973825 0.11636167 -0.7622386 0.8740668 0.38452157 1.4788303 0.72593796 -1.8775504 0.106341995 -0.24585207 -0.05064904 0.8822889 0.6477125
news 0.20881915 -0.34039462 -0.7443323 0.3893401 0.227007 -0.003230264 -0.42784962 -0.573098 0.9573137 -0.63834023 0.56234497 -0.25920415 0.075401366 1.594331 0.394394 -0.26352516 -0.29066902 -0.063678145 0.0773522 -0.47510117 -0.456099 0.3011745 0.6690564 1.033937 0.19475238 0.5150161 0.5125192 0.09989418 0.36179614 0.23619969 0.42687756 -0.47076443 0.46848595 -0.5345578 -0.7750607 -0.14192167 -0.13034289 -0.7862414 -0.34066904 0.41318095 -0.39552793 -0.012950219 0.37486178 -0.22986346 -0.46354133 0.1727965 -0.31367856 -0.6052509 -0.116763175 0.2869193 0.2381799 0.36020783 -0.16552159 0.16874836 0.43936864 -0.15421443 -0.2405355 1.1815085 0.17019403 0.09481815 0.18843707 -0.27523616 -0.25484297 0.43889186 0.94076526 0.37670058 1.186158 0.79238045 -0.2798079 0.32548717 -0.72706515 0.4162952 0.5007084 0.08221791 -0.105062105 0.6146578 -0.036201444 -0.030466339 0.6380712 -0.2971151 -0.44051003 -0.106884845 0.1373041 0.052546192 1.106232 -0.12025865 0.2719766 -0.108570464 0.5678504 0.8472871 -0.46201044 -0.14073189 0.49321336 -0.1866292 -1.046527 0.051481023 0.58743924 0.1366284 -0.3406701 -0.27730185
9557444486 1.0485563 2.3070943 0.38511673 -0.69049376 -1.9031056 0.24194074 -0.31312287 -0.65049124 1.9326761 -1.826919 -0.6386305 1.0517821 0.961611 1.5827588 2.27812 -2.3323119 0.89326423 -0.07765383 -0.61599874 -0.4230355 0.16045615 -0.8643841 -0.47344586 0.24808219 0.39010745 -0.43558532 0.41348898 0.7995554 0.6220872 0.5059321 1.211298 0.98174304 0.10282229 -0.8448459 -0.21826406 0.42939597 0.10682537 -0.36783695 0.067099206 1.1047659 0.29836726 -2.7886436 0.13083383 -1.5999864 1.3460048 1.9942071 0.95392555 0.39723548 -1.3138983 -1.5442703 -1.3563565 0.5644916 0.53870296 -0.55399925 0.06000022 1.5885053 -0.9540355 -0.5255098 -1.3384485 0.2517066 0.8581083 -0.73488164 -0.46381533 1.0150695 0.012393628 -0.19930032 -0.5073699 0.7583557 0.7779704 -1.0247241 -0.6147858 0.080179706 0.24490422 0.8873691 -0.3748763 -0.8598582 -0.5213605 -1.204335 1.1536361 -2.2800305 1.8336877 -0.17153879 0.22795054 2.1396596 1.4745687 -0.9713408 0.45021915 -0.19209002 1.0527203 1.0588338 0.03251445 1.0995626 0.032231472 0.5646352 -0.7981077 -2.0823572 -1.1666781 -1.5942345 -1.279376 -0.43274394
alert -0.21992797 0.535592 -0.4442692 -0.7635326 -0.37658635 -0.15188026 -0.8647935 0.017541697 0.58124804 -0.05001092 1.2024132 -0.25546885 0.257608 1.3578469 0.9379769 -0.20201962 -0.19527602 -0.19713424 -1.3147343 -0.009838558 -0.5976053 -0.03160637 0.8853439 -1.0092382 -0.038443927 1.0181357 0.6568124 0.70176494 0.21192633 0.37709746 0.9196425 0.13836533 0.23977572 -0.8692838 -0.58869183 -0.38176516 -0.33207193 0.2407082 0.34009016 0.97560334 0.2576707 -0.45544934 1.1060207 -0.6847833 -1.056572 1.3500162 -0.23511004 -0.11074741 -0.64718926 0.53318053 -0.1254942 0.17462419 -0.23380876 -0.31616047 0.45797163 -0.6811705 0.514822 0.021130204 0.11186117 -0.20854513 -0.9114135 0.7281057 0.31260863 1.1446447 -0.26551837 0.12613824 -0.8943267 0.4797359 -0.9153251 0.11467044 0.14314315 0.23426181 -0.036245313 -0.36237392 -0.14745416 0.2726661 0.3899352 -0.48879153 -0.1830168 -1.5649824 -0.08062365 -0.9343105 0.15704265 0.34857774 -0.013739694 -1.0000757 1.4982297 -0.16282395 0.5973971 0.28026262 0.72270864 0.03577163 0.22362712 0.6150549 -1.1596427 -0.74937856 -0.43172184 0.19816333 0.21809326 -0.41785675
rescue -0.23658295 -0.84023154 0.02334881 -0.10707453 -0.00070303306 -1.3328247 1.5889939 -0.07438031 0.5560112 -0.72142565 -0.030695092 0.87441534 1.4674153 0.2463487 -0.022103244 -0.123403795 1.4578993 0.2834345 0.324481 -0.659431 -0.27064437 0.281577 -1.3192066 -0.5248292 0.47441083 0.6723645 0.37801832 -1.7048075 0.02291374 1.3957947 0.31308222 0.63101393 -1.6332028 0.14246364 -0.46640822 0.07467162 -0.32326502 0.33152348 -0.32180792 0.89826006 -0.06636967 -1.2548385 -0.04218311 -0.68331826 0.7225555 0.46596897 0.7446035 -0.7687997 1.4876641 0.0057967217 0.14571628 0.119069904 0.9530048 0.12085497 0.83464676 -0.037093535 -0.0014786125 -0.38072884 -0.32882494 0.69248503 0.12980133 0.116875626 0.18203203 -0.35712042 0.52540016 -0.31022745 0.4798884 0.74279016 -0.95552504 -0.5082259 1.1296216 -1.1384497 -0.34677345 1.5474687 -0.115849175 0.4642471 0.6868852 -1.6722194 0.4020987 -1.1912446 1.4151593 -1.1476203 -0.12160149 1.3065706 0.66064584 -0.42880827 1.7173548 -0.6215025 -0.7139077 1.1083472 0.23154972 1.3801088 -0.27904075 0.5165646 0.07118106 -0.29429558 0.57816356 -0.28226608 -1.4044017 0.5699059
tapovan 0.45033723 -1.1055391 -0.76275766 0.22109853 0.9385344 -1.6562873 1.2071526 -0.08944653 1.5063092 -0.63510954 0.51278657 0.4236811 0.3483321 0.9149053 -0.18192862 -0.40073854 1.5099206 0.015940107 -0.72508645 0.0498974 -0.715852 1.2845726 -0.1918875 0.43951523 0.18676895 0.9637902 -0.05161531 -1.1885893 0.27489257 2.233009 -0.34648386 -0.42989728 -1.9953716 -0.27582824 -0.6407563 -0.2216474 0.3927049 0.6349838 -1.2591515 1.3091775 0.40277988 -0.07291876 -0.7862615 -0.41946283 -0.25813782 1.4111315 0.4153654 0.0306911 0.92778265 1.2712107 0.19069491 0.60546714 1.0461795 0.73981667 1.5317581 0.047169674 0.33906263 0.096660435 0.42334938 0.5281803 0.05000481 -0.2224489 0.17735977 0.18676738 1.0954466 -0.48189992 0.74144834 0.17664772 -1.2797836 -0.54299057 0.8336204 -1.0717137 -0.6715822 1.4039788 -0.6003013 2.173738 -0.3403057 -1.728425 -0.22834592 -2.0611289 -0.030061066 -2.3053114 -1.0260637 1.7779669 0.80695647 -1.0371428 2.952863 -1.9648118 -1.140417 -0.11568291 0.22910912 1.033873 1.2899276 0.28477502 -0.86413276 0.70791805 0.6142855 -0.3971873 -0.31945464 1.2593821
break 0.043854903 0.041612513 -1.3106148 -0.25205654 -0.4127146 -0.2697666 -0.0957152 -0.59683365 1.2493194 -0.46502033 0.9419683 -0.27926657 0.35040835 1.4128748 0.66930526 -0.40760213 -0.11320453 0.08384159 -1.1145942 -0.21273296 -0.34108648 0.66488475 0.76276505 0.4160202 -0.007400001 1.1217922 1.0130485 0.3756812 0.31742913 0.7876454 0.5020433 -0.27897638 -0.069042645 -0.7857195 -0.72809297 -0.37926927 0.23970212 -0.12836231 -0.37805003 1.6351588 -0.22286566 -0.6013193 0.9641942 -0.40793926 -1.0008168 1.0795739 -0.090239204 -0.7832012 -0.13175964 0.7264421 -0.37600675 0.59761983 -0.39594167 0.19521917 0.91115105 -0.47253644 0.116221815 0.91042525 0.572257 -0.07663031 -0.34684765 0.3367545 0.06959468 0.69798434 0.71692866 -0.02166726 -0.17937359 0.64087254 -1.1527573 -0.023034515 0.39874703 0.17635131 0.46188834 0.066515066 -0.29191664 1.027032 0.084186256 -1.4124486 0.14246939 -1.9116029 -0.20293301 -1.0408287 -0.15842873 0.8684254 1.4411017 -0.72377634 1.7413538 -1.1364185 0.42644042 0.38272056 0.2569375 0.6180986 1.4028629 0.07926938 -1.4521526 -0.13146032 0.42376855 -0.30015734 -0.046799637 -0.12619391
project 0.69175965 -0.57925624 -0.8392598 -0.18005706 0.66516024 -1.0335504 -0.10989265 -0.06445261 1.0227598 -0.13266173 1.5411611 -0.19659145 -0.23429996 1.5238897 0.3485492 -0.7418964 0.9187609 -0.16812377 -1.8357133 0.2666269 -1.1295878 1.5135665 1.0950801 -0.09304685 -0.41704214 1.0472308 -0.20685302 -0.112128474 0.25812927 1.4387856 -0.08114736 -0.9034365 -1.2410717 -0.82234263 -0.63534105 -0.43479794 0.39877617 0.8577902 -0.9251898 1.4564179 0.3985838 0.53843534 -0.4285276 -0.17986992 -1.2938249 1.9039507 -0.3666269 0.38112897 -0.24427894 1.5095867 0.10896565 0.6099773 0.48950842 0.26983753 1.5981495 -0.3084688 0.8950468 0.50285906 0.8772342 0.14856403 -0.2399538 0.09018031 0.7525178 1.1610659 1.0146742 -0.09037464 0.40077186 -0.23536243 -1.4674046 -0.40178865 0.18782878 -0.19475564 -0.14073423 1.1628242 -0.67868054 1.9231997 -0.79510635 -1.3807249 -0.64055264 -2.4916873 -0.2891244 -2.129192 -1.281599 1.4395624 0.39997476 -1.8983227 2.8214645 -1.9973843 -0.21694589 -0.4683766 0.5184242 0.7387442 2.1636415 0.65564626 -1.8967484 0.666419 0.11684348 -0.11567928 0.71824247 0.911882
missing -0.22672357 -0.58667725 -1.5921816 -0.024581235 -0.5362993 -0.05123942 0.4631527 -1.0230448 0.53913563 -0.36956373 1.1674922 -0.55927116 0.19053105 0.50454015 0.3266644 -0.045821108 -0.13355848 0.19319814 -0.70791596 -0.2943369 -0.33775133 0.8040415 0.8589276 0.30714402 -0.6443248 0.5470295 0.7010681 -0.008425327 0.43207866 -0.02168793 0.69911695 -0.024297412 0.1703275 -0.4676337 0.048919592 -0.5744472 0.50093794 -0.3252279 -0.5911595 0.95644265 -0.74787813 -0.33759075 1.2597524 -0.4595461 -0.90978044 0.5466426 -0.37141687 -1.3580202 0.5944698 0.43637887 -0.16927513 0.38998547 -0.44558236 0.3903713 1.0211967 -0.6640532 0.3494597 0.845082 1.3163395 -0.17292292 0.6125145 -0.083240315 -0.33784142 0.28281495 0.879407 0.22535843 0.72949487 0.1624809 -1.4762366 0.13682945 0.47293773 -0.073764116 0.92195076 0.38596258 -0.13201404 0.7175237 -0.21291839 -1.3985012 0.23921074 -1.1598427 0.18296255 -0.36275655 -0.3176244 0.4298216 1.9751233 -0.41163936 1.1491157 -0.8439326 0.43443492 0.12669358 -0.05803423 1.0270616 1.3280002 -0.06998984 -1.028717 0.083418936 0.5663521 -0.28939202 -0.21694426 -0.24517804
mahadev 0.018405382 -0.2178943 0.28492418 -0.62258554 -0.9496894 0.43864325 -0.0844147 -0.49997413 0.32023677 -1.8177549 0.6826021 0.17082363 -1.115524 1.1838789 0.81030273 -1.3709269 -0.17291029 -0.7702009 0.82789046 0.18604596 -0.8624994 -0.73126256 0.71367925 2.0616214 -0.7102165 -0.8927018 -0.96244186 0.39171976 0.46956524 -0.20108292 0.07267019 0.28147796 -0.0047526034 -0.51704264 0.6109791 -0.38028774 0.6421154 -0.7264037 -0.48734093 -0.05188156 0.22123867 0.51566625 -0.6597065 -1.0127677 0.07361469 0.615295 0.49990162 -0.21386617 -0.050481115 -0.50158334 0.05598304 -0.53656566 0.3768287 0.8059071 -0.1388285 0.8063728 -0.20852284 -0.9941717 0.46746168 -0.7081831 1.3575054 -0.8549151 -1.037939 -0.3813776 1.242705 -0.08951364 1.6454705 0.22127353 -0.24347217 0.31017444 -1.4192141 -0.03213459 0.55392194 0.8623936 0.2116311 -0.09621744 -1.0923927 0.026270913 0.5371958 0.13597362 0.19573717 0.086631455 -0.3165478 0.809721 2.1216257 -0.8360233 -0.25502846 -0.49495065 -0.24434133 -0.03952752 -1.1008173 0.099649295 0.27202883 0.0060778675 -0.44532105 -0.42930827 -0.4145764 -0.117554836 -1.2854563 0.63415897
150 -0.023955572 -0.99419767 -2.007421 -0.16062543 -0.9261768 -0.47670394 0.8448501 -1.3219562 0.6771535 -0.30747017 1.547578 -0.88415295 0.97644174 0.27035528 0.53766954 -0.13012122 0.35674986 0.116054624 -0.68939584 -0.4734486 -0.5620125 1.1418114 0.56011766 0.20745958 -0.3761182 0.77062696 0.7970444 -0.41872346 0.8330991 0.47913748 0.9842103 0.2209357 -0.24656 -0.4480702 0.3433998 -0.8891805 0.7107193 0.23537551 -0.7582992 0.92332965 -0.98095924 -1.0310371 1.5813457 -0.8923518 -0.66790783 0.82149863 -0.49714676 -1.9275631 1.308779 0.5634552 -0.14833632 0.39754102 0.057679754 0.63093644 1.7204207 -1.0112954 0.44886813 0.6703808 1.7380292 -0.058078997 1.2559178 -0.1974268 -0.9413278 0.26854494 1.4819494 0.067624494 1.291512 0.19254132 -2.2612774 -0.06622957 1.0889691 -0.68389386 1.1180401 0.9104814 -0.3538491 1.3049606 -0.26086256 -2.2826219 0.7470073 -1.7773123 0.8383351 -0.82121557 -0.8365426 1.0148846 2.764112 -0.68274873 2.1568768 -1.2849096 0.49078536 0.07127333 0.051625066 1.9571368 1.1310972 -0.07048768 -1.3803139 -0.25946882 0.9555379 -0.4252045 -0.8585392 -0.29507527
dam 0.36731234 -0.7462612 -0.50744367 -0.2890021 0.8285851 -0.78663635 -0.30012262 -0.0013780473 0.4624686 0.13101168 1.5070946 -0.41488108 -0.1751294 1.4056151 0.20213763 -0.37846586 0.39670223 0.13219662 -1.2070974 0.23655237 -1.2454045 1.2010201 1.2146634 -0.17809185 -0.33382833 1.0695636 -0.04321482 -0.023815995 0.25539988 1.0240242 -0.08945913 -0.8996503 -0.7428691 -0.7946705 -0.92032087 -0.3970385 -0.11539505 0.58036035 -0.2828882 0.9810381 0.3810347 0.65610206 -0.16847911 -0.02717717 -1.1957811 1.1953751 -0.56248325 0.09265159 -0.094123125 1.4534205 0.4811218 0.4320591 0.33757973 0.10392149 1.1167864 -0.4376289 1.076304 0.46060348 0.571262 -0.053571094 -0.49398297 0.49645787 0.78355277 0.9807858 1.0208929 0.13866581 0.6136831 0.07225861 -1.3718057 -0.13545613 -0.0031029743 0.10820677 -0.1178612 0.5239807 -0.32083738 1.5017852 -0.5132188 -0.82920486 -0.6261726 -1.8590862 -0.45336828 -1.5920101 -0.9079793 0.5838434 0.104833044 -1.4248145 2.1654873 -1.3580841 -0.041100416 -0.05070624 0.43256462 0.2021554 1.2568666 0.68308556 -1.9260844 0.40619957 0.063249506 0.35264772 0.49557176 0.7832085
near 0.5276246 -0.6620512 -0.5890265 0.19582891 0.8058 -1.5144975 0.7871865 0.056266867 1.3137592 -0.33701754 0.58413595 0.45191327 0.30950046 0.79163766 -0.17751256 -0.35309827 1.3863058 -0.17142446 -0.95646423 0.019732062 -0.4661373 1.1444359 -0.14059585 -0.06489968 0.13546109 0.8641631 -0.12304322 -0.9539341 0.16507164 2.063933 -0.20631093 -0.5257072 -1.7955593 -0.28680038 -0.4960133 -0.15010178 0.36332884 0.92232764 -1.0372654 1.1999694 0.3979739 0.094648905 -0.8051797 -0.22672567 -0.39772993 1.532693 0.31541702 0.40375927 0.39634633 1.0791405 0.09584191 0.6255456 0.9802697 0.44550622 1.4260659 0.05917342 0.3664026 0.03875147 0.3390132 0.5806243 -0.16440253 -0.27890012 0.2739606 0.46829382 0.7435526 -0.48508146 0.2788114 0.049177095 -0.96830845 -0.57384676 0.52660984 -1.0288608 -0.7170335 1.3474154 -0.7239663 2.0700219 -0.34823945 -1.3830796 -0.13046029 -1.916972 -0.069906056 -2.2316215 -1.0501708 1.7690716 0.53578615 -1.3977987 2.97992 -1.7200242 -0.77193964 -0.19494799 0.3667174 1.0640391 1.3738879 0.39709857 -0.8947662 0.6267881 0.46369022 -0.32469073 0.019221844 1.0676048
power 0.67223346 -0.7696344 -0.8194793 -0.24063516 0.77057856 -1.1985657 0.3254641 -0.22949459 1.0369784 -0.27351037 1.3875959 -0.13913988 -0.0909488 1.3689244 0.3360583 -0.710618 0.9723538 0.048843432 -1.5737758 0.24941097 -1.1167151 1.5924616 1.0825189 0.22829977 -0.4161296 1.0479397 -0.236565 -0.30823362 0.45584774 1.6783247 -0.01299396 -0.82011247 -1.301257 -0.7813774 -0.6203318 -0.3226348 0.29708993 0.5979235 -0.92742693 1.2819984 0.2499221 0.36657417 -0.50939286 -0.32586634 -1.1348639 1.7978913 -0.29462263 0.3209514 0.101285756 1.3493161 0.2733008 0.6778594 0.39510968 0.5210093 1.2632624 -0.07500083 0.8339453 0.23822676 0.8213307 0.2991546 -0.09303595 0.2762887 0.6380593 0.89551437 1.0946617 -0.2212833 0.34853736 -0.16972128 -1.2037252 -0.28575766 0.5323979 -0.1498476 -0.06196339 0.84559834 -0.40884444 1.740268 -0.8172903 -1.6019888 -0.52267 -2.2936761 -0.22287886 -1.8701721 -1.0714353 1.1228805 0.5784803 -1.3267347 2.3832178 -1.9287157 -0.4614247 -0.307918 0.45116097 0.8374197 1.9386808 0.5267007 -1.4251021 0.82033104 0.2687045 -0.15293556 0.6067432 0.97658074
breaking 0.12166867 -0.37151518 -0.81238115 -0.2528455 -0.18783227 -0.31541923 -0.33435303 -0.22148865 1.020586 -0.67921174 0.9242531 -0.3175628 0.5494534 1.7405245 0.35831523 -0.22628656 -0.47891766 0.15725368 -0.09856484 -0.520558 -0.5495639 0.772436 0.884801 0.9767602 0.28337133 1.2397357 0.9063207 0.20984344 0.31909522 0.73777586 0.44264814 -0.39060497 -0.055080555 -0.9607119 -1.1765618 -0.3749896 -0.44611543 -0.57355493 0.09048188 1.2265681 -0.12253147 -0.009814478 0.36378935 -0.39380294 -0.9295048 0.6879451 -0.07098556 -0.92047995 -0.26778564 0.47500476 0.4566826 0.2694524 -0.15520851 0.3996702 0.71268547 -0.37253362 0.07846546 0.95757616 0.18750897 -0.16346876 -0.14973116 0.2216044 0.0113215735 0.69441026 1.3694519 0.24531637 0.5858306 1.017044 -1.0002481 0.21622242 0.11709608 0.39523163 0.4645388 0.039884 -0.17421882 0.91118056 -0.10809261 -0.6751728 0.5060591 -1.2792735 -0.35532168 -0.65920675 -0.026732704 0.5703653 1.2611487 -0.55615014 1.1204382 -0.74707395 0.27448222 0.9732362 -0.06387104 0.39067948 0.72604716 0.08283628 -1.5042737 -0.031369258 0.6624862 0.2066971 -0.458299 0.051838115
har 0.13248521 -0.33391824 0.32477948 -1.2594876 -1.7974138 0.4091324 0.33384594 -0.7822758 -0.15800242 -2.0920703 1.2161821 0.021844286 -0.7524246 0.6744522 1.1659194 -2.1915305 0.27031404 -0.40121767 0.8589438 0.34859768 -1.4682157 -0.8622088 0.49905545 2.0480742 -0.96105176 -1.4607257 -1.1766071 0.39823157 0.77609867 -0.22235413 -0.23428461 0.22586964 -0.44207138 -0.7855905 0.9754203 -0.535655 0.9793198 -0.35532847 -0.21346715 0.35756242 0.6071245 -0.14678453 -0.7147027 -1.269122 0.7611208 0.7804119 0.6613958 -0.6515971 0.3919899 -0.45654425 -0.15040351 -0.52445525 1.0725875 0.71534646 0.28448677 1.0898815 0.21014674 -1.7696884 0.7124907 -1.021048 1.968133 -0.7430984 -1.1623598 -0.3914349 1.8386247 -0.2232225 2.1284807 -0.020805135 -0.69811064 0.013755552 -1.2281039 -0.14591806 1.02309 1.771822 0.32352504 -0.13112481 -1.4377103 -1.3769608 0.36840948 -0.82557243 1.3749849 -0.053804938 -0.90326416 1.5184292 2.7733054 -1.5823566 0.1112229 -1.3440299 -0.42154682 -0.1630485 -0.8691872 0.75713736 0.5187922 0.54960805 -1.12405 -1.2811638 -0.6224516 -0.6018596 -1.8808184 1.3477182
emergency 0.6987985 1.7717059 -0.0029904437 -0.8175213 -1.7007434 0.22965193 -0.15340905 -0.606964 1.2274848 -1.0654317 -0.19224112 0.47960553 0.9623425 1.0053968 1.9006062 -1.7845181 0.48851848 0.25726655 -0.66834736 -0.33056024 0.010095861 -0.5815411 -0.21702328 -0.1262922 0.23613155 -0.28487045 0.49147454 0.85607195 0.67517775 0.27387193 0.91258115 0.6773642 0.22196572 -0.76389366 -0.06806998 0.1476242 0.10206362 -0.16766873 0.34269962 0.9911297 0.20101422 -2.3413234 0.5819117 -1.2017041 0.92444825 1.5092424 0.63579065 0.036474284 -0.94863516 -0.9555992 -1.0894274 0.4658702 0.30049106 -0.57933974 0.057654385 1.0114099 -0.43816644 -0.45558158 -0.84862816 0.0072526727 0.5832053 -0.22722091 -0.30611524 0.87053627 0.030434884 -0.09143001 -0.46636403 0.57611126 0.25816238 -0.7718633 -0.23959021 0.19171467 0.3492126 0.48727503 -0.17454706 -0.6451061 -0.2140532 -1.2665457 0.76363695 -2.0573514 1.4970393 -0.08124888 0.020040175 1.5208946 1.1555364 -0.79231447 0.43822318 -0.26965994 0.9299011 0.75507706 0.3383722 0.8938901 -0.04336421 0.50260586 -0.9650937 -1.817808 -0.9203678 -1.2677559 -0.93431985 -0.37663358
due 0.2810499 -0.51933116 -1.3175551 0.20478415 0.5122011 -0.69633746 -0.13485025 -0.12238003 1.7361474 -0.7218656 0.7319202 -0.26196384 0.12215239 1.7504126 0.061433706 0.16402526 -0.2826397 -0.1680965 -0.46603814 -0.43999198 -0.2018282 0.9647577 1.0102984 1.0302929 0.51038116 1.5646069 0.7044633 0.073675424 0.39740333 1.4029764 0.6681367 -0.36988547 -0.3368683 -0.7108462 -1.0097308 -0.57378626 -0.23333324 -0.31209597 -0.85500205 1.127407 -0.20685227 0.32673168 0.20087877 -0.70576304 -1.3035882 1.3701562 0.077739015 -0.5448061 -0.036557864 0.84307015 0.38589966 0.13824947 -0.017559497 0.9795951 1.0356759 -0.53984785 -0.1283867 0.9554321 0.5161713 0.051748883 -0.02839235 -0.14281422 -0.27527702 0.7487767 1.1945763 0.05001856 0.35538098 0.89083934 -1.1824164 0.34613514 0.31498712 -0.3983348 -0.12416218 -0.28493312 -0.6433971 1.8044052 0.034335844 -0.41924876 0.640892 -1.232881 -1.1998266 -1.3592705 -0.2283381 0.8386235 1.236852 -0.38428575 1.7992321 -0.7204014 -0.14845493 0.22583833 -0.13134612 0.4609834 0.78363603 -0.46603665 -0.8693089 0.50815666 0.78493136 0.18906337 -0.17882799 -0.10518637
coming 0.13739097 -0.45343465 -0.7813316 0.16499475 0.53677213 -0.16403513 -0.8300044 -0.43635526 1.0679021 -1.3443652 1.1367097 -0.4136923 -0.6635215 2.4783232 0.45435756 -0.57114196 -0.50746983 -0.26362363 -0.21310523 -0.54911685 -1.0613903 0.28348744 1.6756375 1.6852473 -0.41890028 0.7224228 0.35257202 0.5206851 0.37219316 -0.0765495 0.37986028 -0.8365578 0.30115613 -1.0006262 -0.9033835 -0.5868916 -0.17752795 -1.1582847 -0.829722 1.046871 -0.06847109 1.0563781 0.15925431 -0.53759784 -1.5310836 1.1179435 -0.13802916 -0.27586365 -0.1947373 0.36259735 0.47013617 0.17839482 -0.1590022 0.82545865 0.5097303 -0.23539907 -0.25525713 0.91576767 0.7802768 -0.2361552 0.133118 -0.08359055 -0.06433376 0.71671605 1.3707556 0.34247828 1.4023309 1.0551752 -0.60458535 0.74121255 -1.3592101 0.7584026 0.35943085 0.28995547 -0.23249596 0.71292204 -0.246551 0.24486046 -0.04079921 -0.3713554 -0.72853124 -0.39388135 -0.10704905 0.32970548 1.4910619 -0.50155044 0.36140025 -0.80354893 0.46174884 0.55042017 -0.73168993 -0.40491846 1.3389456 -0.18796475 -1.3216547 0.53925335 0.26019695 0.26035148 -0.03499355 -0.020214494
need 1.0707614 0.9236097 0.23672256 0.9246587 -0.117318265 -0.25634935 0.11728728 -0.29533276 2.6453788 -1.5835396 -1.1284208 1.4285315 -0.1851551 1.4431177 1.1018273 -1.1712888 1.3547113 -1.0395027 -0.029752279 0.16729741 0.4885066 -0.8177099 -1.2306665 0.9738696 0.9513653 -0.0068633077 -0.053483937 -0.72891265 0.28805074 1.5510651 0.62832063 0.5822828 -0.75200033 0.11357196 -0.33233377 0.7987095 0.7468383 -0.3266754 -1.4391886 0.17978144 0.057990965 -1.5209248 -0.81942457 -1.0110354 1.3996524 1.1676189 0.98121375 0.8502477 -0.57124186 -0.85922015 -1.0768584 0.37828374 0.9152298 0.15095784 0.32266504 1.4167129 -1.2340428 0.16155224 -0.96731025 0.63955855 0.7798592 -1.864799 -1.1223779 -0.032689903 0.16992515 -0.33387178 0.12533939 0.5860362 0.9742789 -1.0649475 -1.2441435 -1.3021485 -0.68513894 1.1151253 -0.87236327 0.6691108 -0.36327592 0.12636858 1.701026 -0.8687259 0.131509 -0.85313326 0.1383725 2.217725 1.6764675 -0.70098287 1.2133784 -0.2235942 0.22876203 0.5643175 -0.83514667 0.67332715 -0.09472701 -0.35648063 0.10217185 -0.73988575 -0.31021634 -0.79396355 -1.2355275 -0.05618462
number 0.8589818 2.0170994 0.16567816 -0.44609123 -1.7926048 0.19488835 0.08342929 -0.6834929 1.67942 -1.2678766 -0.75320506 0.96949565 1.1749738 0.9172502 2.0355582 -1.8765216 0.921771 0.10089893 -0.49775687 -0.3365551 0.40001023 -0.8104717 -0.9898501 -0.2598444 0.51962 -0.35777235 0.584126 0.49562874 0.6164393 0.5345593 1.0048194 0.92703944 0.022123309 -0.5359808 -0.05287079 0.47234362 0.16649337 -0.23409471 0.10869774 0.89762974 0.08710075 -2.999905 0.55610687 -1.33209 1.6269081 1.4979986 0.85711485 0.17480591 -0.94625556 -1.3168198 -1.3918738 0.5769505 0.5262397 -0.73342806 -0.010451748 1.3620192 -0.8533467 -0.34537056 -1.2445174 0.3140229 0.7083256 -0.64346164 -0.52594763 0.72822237 -0.21520019 -0.20133144 -0.692719 0.6406955 0.7530197 -1.1199936 -0.27802798 -0.15185761 0.20196022 0.7363344 -0.26097873 -0.7445571 -0.043132573 -1.2261704 1.2009215 -2.039449 1.8274751 -0.12653527 0.23928142 1.9237434 1.2438763 -0.7125691 0.5072855 -0.1338924 1.005788 1.0437495 0.21263038 1.1241986 -0.2746784 0.36755157 -0.63342065 -2.0175378 -0.939288 -1.5579747 -1.2161771 -0.48469356
dhauliganga 0.38692537 0.17681806 -0.54461944 -0.15268789 0.23011531 -0.72781694 -0.3800732 0.016243165 0.91442966 -0.0028049764 0.9155247 -0.02824242 -0.25663078 0.6788664 0.028683081 -0.3193163 0.6819722 -0.45971203 -1.4628345 0.08914332 -0.3840748 0.47765845 0.3699433 -0.7322195 -0.14453276 0.40235776 0.039000083 0.18781911 0.08868339 0.9226815 0.033462137 -0.8337012 -0.7491584 -0.3484113 -0.27293116 -0.2962195 0.44465664 0.9778653 -0.5175124 1.18369 0.49939048 0.34226832 -0.10041549 0.18241899 -0.8437237 1.3162667 -0.09315237 0.54054874 -0.5387138 0.9610917 -0.35718352 0.66194457 0.48245814 -0.07971929 1.1542832 -0.31555745 0.5233165 0.04065129 0.6123397 0.08194583 -0.8200759 0.03474197 0.17346169 0.93246335 -0.070569605 -0.42917305 -0.7105005 -0.15659834 -0.46087667 -0.13348524 -0.08987589 -0.46694517 -0.40511188 0.36272386 -0.60633296 1.5118731 0.0017132543 -0.79082984 -0.47698268 -1.4792943 -0.47097072 -1.5136153 -0.7753372 0.96308565 0.0012980629 -1.3816231 2.3671176 -1.2694407 -0.078229174 -0.732708 0.83651006 0.34343603 1.5119469 0.4892752 -1.0855181 0.26692665 0.13461967 -0.08977224 0.8608355 0.45015734
haridwar -0.51282746 0.5521139 0.42135045 -0.8608758 -0.48310304 -0.006592583 -0.86311495 -0.0147511605 0.1123106 -0.4039204 1.4280125 0.15188864 -0.8294589 1.1478988 0.9781084 -0.4065706 0.39575142 -1.0961696 -1.4577782 0.4453413 -0.7192029 -0.8152263 0.67988914 -1.2278521 -0.7552761 0.21479334 -0.3101199 0.44721538 -0.07864138 0.031742867 0.7888005 0.27091736 -0.26142222 -0.5194246 0.08803819 -0.1171737 0.27868998 0.5129642 -0.33383808 0.65418166 0.5024384 0.18351941 0.5420623 -0.81299794 -1.0921966 1.5148691 0.009372406 0.54937387 -0.5573365 0.3009593 -0.34307927 -0.099810705 0.052697476 -0.26777342 0.20524329 -0.40331832 0.55095416 -0.83283097 0.42190167 -0.27806643 -0.84571946 0.30104208 0.2075956 0.609273 -0.7729182 -0.2862164 -1.007235 0.02763332 -0.6842211 0.1923589 -0.7363457 -0.39153823 -0.26749104 0.50593424 -0.18301606 -0.00451055 0.30162174 -0.048868213 -0.3966705 -0.8220034 0.22102985 -0.91986173 0.007880826 0.5766319 0.0814166 -1.5481117 1.4416953 -0.28634128 0.37698382 -0.24318038 0.47680807 -0.08961351 0.5597844 0.8689149 -0.49313405 -0.57703424 -0.95223284 0.4924307 0.09634643 -0.10849333
official 0.28553882 -0.018486915 0.29542375 -0.48321113 -0.79781824 -0.83122075 1.2957441 -0.20028973 0.23340142 -0.5547701 -0.18747719 0.6190401 1.5336058 -0.067335986 0.64531976 -0.9453724 1.4059383 0.5581525 0.11399744 -0.42706984 -0.31010783 0.20566615 -1.0839838 -0.49535134 0.2850477 -0.12093222 0.0008680832 -0.8841136 0.36608592 0.9247073 0.20400956 0.63858235 -1.209074 -0.15905543 -0.05386887 0.118532114 -0.26480007 0.44044432 0.24887393 0.58428913 0.28023812 -1.8007789 -0.22495352 -0.7876484 1.2959484 0.7018368 0.57988447 -0.32864183 0.72815585 -0.36608076 -0.05219198 0.21108463 1.0330551 -0.2347439 0.5117434 0.58572865 0.12540439 -0.851498 -0.5871028 0.38435495 0.7348727 -0.025432069 -0.014408785 0.08121199 0.55286056 -0.17193256 0.46246594 0.19051865 -0.4324632 -0.85762376 0.96618766 -0.5509523 0.033463452 1.4708372 -0.02153573 -0.1302278 -0.12550177 -1.8047514 0.34324792 -1.5674301 2.035903 -0.5666562 -0.47327122 1.3751385 0.4488465 -0.5911416 0.92534715 -0.679635 -0.3109005 0.84576815 0.4101974 1.395662 -0.46617338 0.75097036 -0.40851146 -1.0202004 -0.10254396 -0.8475558 -1.1800328 0.5869862
rise 0.40718523 0.32197636 1.2583957 -0.52010804 0.5032975 -0.9031861 -1.5137255 0.23983589 0.36339816 -0.23705885 2.2982612 0.45904717 -1.3277422 2.2329493 1.2160004 -0.9299702 1.9676318 -2.0574007 -2.3978844 0.41699734 -1.5362844 -0.38588366 0.8370733 -2.3936465 -1.0295751 0.1647062 -1.427682 -0.3844772 -0.18034826 0.8262754 1.0646057 -0.54890347 -1.2739526 -0.7198385 -0.35394093 0.14533772 0.33188075 1.625418 -1.0669038 0.4750456 0.92864674 1.0359312 -0.8731944 -0.43819004 -1.463013 2.381804 -0.6961648 2.1216564 -1.2986377 0.77119434 0.07267603 0.29440808 1.0848958 -0.60425586 1.2331948 -0.09737111 1.3601596 -0.83475626 0.4891595 0.29089442 -0.9032378 -0.47457692 0.6538501 1.5509484 -0.40498328 -0.21887717 -0.28248325 -0.34120286 -0.644808 -0.56231457 -2.2260149 -0.9958731 -0.9201996 2.171496 -0.91631794 0.9270148 -0.63760227 0.4736404 -0.20856127 -1.4636424 0.42353716 -2.0425372 -1.0555996 1.5105324 -0.23849988 -3.807979 3.559348 -1.0469235 0.90715337 -0.15811208 0.59935457 0.4979491 1.3723528 1.862541 -1.7730584 -0.104115665 -1.2232219 1.0354863 0.74512315 0.5190488
uttrakhand 0.23423027 0.19688128 -0.52838725 0.077267736 -0.23551917 0.14138609 0.06931672 -0.4102357 0.8500488 -0.6880909 -0.12321376 -0.07877208 0.1453663 0.6297934 0.66512096 -0.48900986 -0.21673325 -0.06378095 0.36854172 -0.18907967 -0.030289292 -0.026708668 0.2623617 1.0301647 0.20010844 0.07970739 0.15880236 0.13179314 0.41766202 0.39990827 0.46445993 0.35158187 0.27454704 -0.20970628 0.05256702 -0.1313509 0.3159375 -0.40369275 -0.28030017 0.0024671054 -0.26923135 -0.5629424 0.08137438 -0.7404538 0.28579786 0.5806504 0.22072549 -0.296313 -0.07776337 -0.19906275 -0.0751155 0.03504624 -0.1256629 0.3876734 0.13384585 0.40881348 -0.3590888 0.101091586 -0.13630433 0.0025949206 0.8311523 -0.5768877 -0.5930791 0.012145189 0.6304841 0.015295791 0.85523236 0.4845024 -0.37330756 -0.111516684 -0.16976067 -0.060118966 0.2507013 0.14186674 -0.13912614 0.25062078 -0.47097802 -0.13279895 0.85751235 -0.43421334 -0.10008385 -0.1612175 -0.107324 0.58041227 1.2915615 -0.042350188 0.2560702 0.13146451 0.15442894 0.3186867 -0.4256757 0.44045097 -0.24686064 -0.34412158 -0.420047 -0.37573612 0.0005101902 -0.50108176 -0.8195409 -0.29811272
indifficulta 0.026322367 -0.4992094 0.00921935 -0.36784196 -0.25242132 -0.059019975 -0.10204788 -0.23911785 -0.5006857 0.033320237 0.99643356 -0.46130854 0.26630127 0.47687563 0.42111215 -0.17263438 0.09666902 0.0218458 -0.0031787595 -0.23527662 -0.75564903 0.19972019 0.58488345 -0.36848822 -0.24489713 0.12527211 -0.14415018 -0.099386 0.29971707 -0.107269876 0.57130784 0.04187344 0.07197112 -0.40624648 -0.22547191 -0.28284395 -0.2888296 0.19390656 0.15020196 -0.04590221 -0.11236383 -0.117874175 0.2845192 -0.39082927 -0.276367 0.26624826 -0.5868576 -0.5316557 0.15855134 0.21082154 0.47178513 -0.16963325 0.14200316 -0.07854085 0.4221043 -0.3033709 0.6180182 -0.0022442515 0.27288356 -0.19986877 0.5280409 0.02693409 -0.018162053 0.4144039 0.7261533 0.28615847 1.0211478 0.08378345 -0.9159507 -0.08940135 -0.15533242 -0.03388776 0.46361905 0.55885905 -0.029333139 0.056174625 -0.26398802 -0.18101168 0.28855512 -0.37003762 0.5476156 -0.07938102 -0.32863083 -0.018654644 0.64239734 -0.75497097 0.544574 -0.09618131 0.5457189 0.43383077 0.034986544 0.56835365 -0.18690811 0.3710678 -1.0268488 -0.40479428 0.010428751 0.29741904 -0.35864648 -0.016650831
flash 0.1936546 -0.3838814 -1.685585 -0.019614538 -0.74163 -0.5812196 0.36558005 -0.86267686 1.5450423 -0.71838665 0.8055022 -0.42530707 0.94702166 0.59562755 0.34261677 -0.105780505 0.37122265 0.008385276 -0.54804915 -0.54733497 -0.18032803 0.56236935 0.1488265 0.019950194 0.4862318 0.87491286 1.0137941 -0.020742137 0.80276096 0.93910515 0.9143242 -0.008298317 -0.39051962 -0.4903621 -0.20190185 -0.71827185 0.19976148 0.31183985 -0.6801595 1.5629627 -0.14593211 -1.1977053 1.3224612 -0.9852595 -0.26729196 1.2915564 0.046003472 -1.5069766 0.52495176 0.55269945 -0.3624019 0.4748428 0.4517026 0.4622874 1.5763972 -0.7482248 0.0022269236 0.46048203 0.93785167 -0.14037754 0.389111 -0.3674133 -1.0326015 0.72811276 0.99887305 -0.31027114 0.26139894 0.52805996 -1.5030032 -0.01491465 0.61496544 -1.0596596 0.26587287 0.23037651 -0.7653059 1.8032796 0.4612753 -1.7703414 0.7670559 -1.84589 0.09260746 -1.2838355 -0.54546744 1.3901608 2.249994 -0.7320527 2.4758487 -1.1022103 0.29914102 -0.096364826 0.42667705 1.3415627 0.6371989 -0.25382435 -1.2356595 -0.58921385 0.8242376 -0.4113644 -0.7663581 -0.2430835
rishikesh -0.104333706 0.55545855 0.9142482 -0.61879927 -0.037861288 -0.06161684 -1.3814161 0.11315721 -0.094316415 -0.022909928 1.6077404 0.1253452 -1.000574 1.44013 1.183299 -0.47276202 0.71237963 -1.4468225 -1.5573658 0.4057939 -0.90996075 -0.7407076 0.8567404 -1.7650194 -0.7976203 0.071029216 -0.80776566 0.21850318 -0.09099116 -0.04060483 1.0665466 0.08496974 -0.13724194 -0.5763882 -0.024324263 0.06449191 0.0796273 0.755839 -0.38901085 -0.03811026 0.4860612 0.5665549 0.04801548 -0.5622534 -1.1345595 1.4980747 -0.53697556 1.2582079 -1.0448555 0.24025984 0.012781973 -0.050804615 0.2217777 -0.52380913 0.27549705 -0.25335902 0.8629572 -0.7029999 0.26690903 -0.04741072 -0.69675225 -0.101946324 0.3271442 1.0591611 -0.68824697 0.03805382 -0.49183232 -0.13232721 -0.4127935 -0.13856925 -1.5669594 -0.32689804 -0.432016 0.84023815 -0.38407475 -0.06260187 -0.2643292 0.79229575 -0.085657455 -0.6174844 0.22900817 -0.8344011 -0.22952387 0.49693885 -0.22407982 -2.1922522 1.6424898 -0.04105899 1.0043441 -0.04305886 0.38376263 -0.011356067 0.37919387 1.1487067 -0.91827065 -0.46369758 -1.1834127 0.868151 0.4537286 -0.18836434
helpline 0.55879146 1.3914564 -0.5444617 -0.38428888 -1.4057837 0.33181748 -0.20489663 -0.6289395 1.3592687 -1.077548 -0.22831373 0.25117308 0.7789231 1.0007366 1.2394049 -1.2138711 -0.09436057 0.24782582 -0.3712358 -0.43232715 0.2160649 -0.2822031 -0.0065108454 0.52773696 0.33573103 0.05672768 0.8789864 0.813095 0.46803188 0.21991041 0.7420187 0.4721045 0.47630522 -0.69507736 -0.2444478 0.07621531 0.06902322 -0.59383667 0.12851737 1.0612891 -0.12878326 -1.8202688 0.7137802 -0.8633943 0.52460074 1.0184962 0.42301378 -0.31860778 -0.8323959 -0.7874425 -0.91676223 0.41340896 -0.06276726 -0.25653028 0.23731625 0.632845 -0.6903363 0.26476094 -0.5896294 -0.10305528 0.5615016 -0.30831733 -0.48277643 0.69689614 0.3833737 -0.02361658 -0.37866545 0.75519013 0.16760969 -0.4098023 -0.13974 0.3273807 0.5628122 0.1299538 -0.19708602 -0.28441668 -0.16362967 -0.9023675 0.8660344 -1.5623957 0.7880794 0.02917104 0.28085607 1.1587113 1.3493491 -0.25084305 0.23592685 -0.21208765 0.7480179 0.7060472 -0.0029689462 0.6920963 0.28512684 0.018410511 -0.8145159 -1.251752 -0.38616258 -1.0795575 -0.8218584 -0.49457076
team -0.19992144 -1.1171628 0.7197644 -0.016537635 0.27970392 -1.4419779 1.1480939 0.11378864 -0.034702424 -0.28433922 0.40824613 0.8621209 1.6336329 0.42467394 -0.022899488 0.3184229 1.701228 -0.012164742 0.2766664 -0.7215774 -0.4845262 0.23264417 -1.2122523 -1.5966287 0.413562 0.8233475 0.11870592 -2.2595882 -0.09572626 1.2308842 0.84230006 0.74222887 -1.8041482 0.13475333 -0.7676177 0.30934954 -0.79408264 0.89713705 -0.16522491 0.35291588 -0.0227924 -1.0257856 -0.264652 -0.6309195 0.51738095 0.3617881 0.19284858 -0.5508276 1.4093164 -0.02507994 0.6284266 -0.0731816 1.1868545 -0.3860091 1.0341294 -0.41533545 0.4758242 -0.2836823 -0.45114443 0.8267327 0.14956833 -0.106421806 0.27668434 0.013557338 0.5723658 -0.09727969 0.79810685 0.60638666 -1.3123337 -0.6097609 0.68551964 -1.6267747 -0.53952944 1.9494231 -0.27314293 0.41383868 0.7394051 -0.9959296 0.71762073 -0.79029334 1.9033191 -1.0620083 -0.29163456 1.0801157 0.4262076 -1.1008782 2.1581452 -0.20744105 -0.17796297 1.5985206 0.23120537 1.5464072 -0.9826854 0.96006536 -0.3290847 -0.6311438 0.3621002 0.5139468 -1.441622 0.3688741
floodifficultng -0.39374062 -0.165119 -0.58430195 -0.25450814 0.16524844 -0.6177245 -0.4115691 0.10110771 1.3721086 -0.7198933 1.193719 0.03784749 -0.8194134 1.6593332 0.25261155 0.27453065 -0.03615875 -0.91169864 -0.89786446 0.018810812 -0.4321956 -0.22209436 0.7595879 0.040221225 -0.04299537 1.1378092 0.19931959 0.07493673 0.050939932 1.1329404 0.7401199 -0.025617981 -0.557809 -0.38090256 -0.5752225 -0.4847436 0.39633635 0.22781111 -0.8581401 0.9285341 0.05205242 0.5571835 0.4352457 -0.6207137 -1.5412676 1.4711032 0.29995865 -0.21460965 -0.12674206 0.76930314 -0.27709803 -0.15233076 -0.04769371 0.5584563 0.94586754 -0.6091977 0.2760264 0.02257972 0.6954072 -0.33335435 -0.77674246 -0.020476768 -0.28172943 0.3684688 0.107929744 -0.3109682 -0.42414063 0.7496684 -1.3361386 0.47188607 -0.25976864 -0.9590066 -0.44271109 -0.19423522 -0.37209252 1.4674337 0.55460083 -0.1205563 0.26465127 -0.981433 -1.183306 -1.5836036 -0.08912235 0.7404647 0.92549336 -0.9916961 2.3899195 -0.3735839 -0.33922243 -0.25880238 0.037479598 -0.062093932 0.5197785 -0.029027121 -0.59664315 0.13250151 0.17973961 0.5521227 -0.24516283 -0.13832755
village 0.6521356 -0.7390573 -0.1625726 -0.0042708004 0.78800046 -1.3793725 0.4938531 0.24553153 0.80736136 -0.12062568 0.8385952 0.2937307 0.061267525 0.6051904 -0.24970658 -0.32502568 1.5297188 -0.22026296 -1.0873524 0.2965811 -0.6559444 1.0030951 -0.044846848 -0.5818835 -0.06972482 0.60934687 -0.477108 -0.91858196 0.09639126 1.7928482 -0.23557113 -0.72897696 -1.8007766 -0.27640387 -0.2918616 -0.06859379 0.3680112 1.290006 -0.91955155 0.9518348 0.530027 0.23046847 -0.89453286 -0.028155135 -0.3634222 1.4348888 0.028041936 0.588845 0.12701698 1.1312541 0.08220103 0.50959355 1.0713406 0.10815367 1.4651961 0.04490714 0.75715464 -0.15243632 0.37564084 0.42438945 -0.22021502 -0.3194435 0.41641846 0.5388048 0.65441597 -0.5436767 0.29770222 -0.22002646 -0.9973346 -0.6135476 0.060674187 -1.1656966 -0.7231404 1.5542167 -0.7030446 2.0216305 -0.42432803 -1.1782147 -0.24228114 -1.841382 0.15869676 -2.19081 -1.245901 1.6491426 0.3958604 -1.7843698 3.0323596 -1.681838 -0.6205788 -0.4216326 0.4486895 0.93111783 1.2610521 0.71331495 -1.1364657 0.4684764 0.20387748 -0.021018246 0.1793518 1.1499127
let 0.12821335 0.1572821 -0.3416851 -0.15273997 -0.48709813 0.33703947 -0.13748068 -0.41323662 0.60971093 -1.03947 0.17650068 -0.07663078 -0.483887 0.7043144 0.5553375 -0.6674216 -0.34514245 -0.25243273 0.4145107 -0.02829658 -0.2145589 -0.4799296 0.43326503 1.3233693 -0.08178296 -0.24909808 -0.22100939 0.47387087 0.39650372 0.055810936 0.25815377 0.19123682 0.4118947 -0.16500357 0.3093299 -0.2550359 0.51721877 -0.49044177 -0.39613792 0.0748733 -0.057971973 -0.050071694 0.01972008 -0.66726744 0.08793337 0.46612632 0.33419526 -0.24268188 -0.1573537 -0.28508645 -0.24320467 -0.15007232 0.051024836 0.47378543 -0.006819145 0.44783965 -0.34486207 -0.23070978 0.15641715 -0.42704353 0.8444199 -0.70864236 -0.85099286 -0.13515687 0.7285927 -0.1091641 0.96769476 0.3496847 -0.33607072 0.13088046 -0.85728955 -0.16717754 0.22496577 0.1829225 -0.08470546 0.27973303 -0.47232872 0.023937032 0.649595 -0.1802701 -0.16851556 -0.14801833 -0.12649332 0.57771486 1.5932716 -0.3047752 0.094906814 -0.020945452 0.10698616 -0.03535896 -0.6822662 0.020272711 -0.08254841 -0.30559456 -0.5235247 -0.46788356 -0.14627941 -0.29339135 -0.95720243 -0.08516224
feared -0.13907228 -1.1036297 -1.9841697 -0.093104385 -0.86832404 -0.6360728 1.0726074 -1.1930846 1.0109234 -0.6832952 1.3334897 -0.6459378 0.9094744 0.32007164 0.2939032 0.029736804 0.5994312 0.122782126 -0.55500287 -0.53241175 -0.52116793 0.88512284 0.20979409 0.20410813 -0.13170198 0.8088342 0.91718996 -0.5776217 0.7289263 0.76503265 0.8335541 0.09405868 -0.6130232 -0.3247699 0.12931797 -0.8745718 0.68279797 0.22527413 -0.8442766 1.3173147 -0.7335462 -1.1718688 1.5196205 -0.92397326 -0.3626158 0.8577833 -0.11647495 -2.130716 1.4342564 0.6737449 -0.2651452 0.42753878 0.33886465 0.59119993 1.9017376 -0.98048204 0.33338195 0.55209893 1.6084412 -0.09877406 1.0577048 -0.26997453 -1.1273334 0.13875546 1.3935356 -0.14491537 1.0724846 0.3719331 -2.2671764 -0.021268044 1.0662357 -1.1536124 0.8493086 0.9029924 -0.4720985 1.5898855 0.13387872 -2.4417152 0.6896037 -1.8466159 0.72016644 -1.0861048 -0.7069538 1.2138822 2.8545444 -0.6604012 2.4597628 -1.4299295 0.1313234 0.08958246 0.119120404 1.8933581 0.94671947 -0.05649588 -1.1981087 -0.4432199 1.0743034 -0.4963335 -1.1742612 -0.07642798
stuck 0.7467812 0.54873735 -0.47284237 0.8897339 0.03556845 -0.31965294 0.3432768 -0.41267294 2.5822697 -1.348211 -0.9916541 0.9828698 -0.18024644 1.0850066 0.68785095 -0.7383403 0.8466589 -0.76232773 -0.10001266 0.09435729 0.56266594 -0.358753 -0.86307275 1.2451241 0.9031162 0.31677455 0.27273074 -0.49603674 0.31078085 1.5366479 0.42866787 0.41057584 -0.5914266 0.15279382 -0.23030989 0.44400615 0.79002553 -0.3820574 -1.4086158 0.47120973 -0.07526761 -1.1918017 -0.40057966 -0.8503379 0.82391644 1.0633478 0.9182583 0.3202734 -0.19888619 -0.37716916 -0.99252844 0.33684978 0.49559966 0.5100605 0.35408136 0.8530062 -1.186254 0.39439526 -0.40369615 0.50432694 0.5030537 -1.4318682 -1.0235463 -0.15505794 0.16514722 -0.41962907 -0.11278862 0.49258572 0.5773269 -0.5923301 -0.4823292 -1.1011842 -0.5687273 0.45779213 -0.7551998 0.9886807 -0.089196905 -0.19801883 1.279753 -0.7619385 -0.46147504 -0.8523085 0.09901635 1.7895341 1.5890868 -0.07818594 1.0988221 -0.32962018 -0.14464785 0.12067877 -0.5906799 0.5124871 0.29945448 -0.70733064 0.3168646 -0.16274697 0.17121746 -0.801998 -0.86477363 -0.13933416
well 0.42907357 0.38656694 0.002539606 0.12662382 -0.43347797 0.11141203 -0.30220553 -0.07031772 1.1784517 -1.2746892 -0.37793803 0.48874798 0.22792499 1.3549738 0.36397007 -0.5954531 -0.28559622 -0.044806346 0.5655521 -0.59620965 0.12385517 -0.025553633 0.21301234 1.3868797 0.4727412 0.2749883 0.42173982 0.18709937 0.14932013 0.34212235 0.51474637 0.16585931 0.038034886 -0.4962621 -0.6777271 0.1578854 -0.3308435 -0.86675113 -0.21898143 0.54595584 -0.12958393 -0.32797825 -0.3791337 -0.5515819 0.060244013 0.52464193 0.5177235 -0.13967967 -0.59709555 -0.81774193 -0.061833523 0.025511784 0.07954849 0.3987222 0.10617721 0.5785244 -0.7782655 0.42105561 -0.5002497 0.071980804 0.5966058 -0.5878439 -0.39557362 0.33978912 0.9953888 0.17347974 0.47144407 0.8983075 0.17848559 -0.066278085 -0.66671056 0.098671526 0.14467566 0.32116526 -0.28499758 0.058431555 -0.35991144 0.13061877 1.0182562 -0.44519615 0.033425923 0.01115581 0.24444373 0.87275267 1.2652116 -0.23967116 -0.047642477 -0.02982465 0.28358734 0.90070903 -0.6639543 0.310175 0.11627478 -0.3012437 -0.3400912 -0.25077188 0.09623606 -0.18071017 -0.8648705 -0.14891501
broke 0.1904627 -0.17039171 -1.0154065 -0.47238013 0.23341893 -0.4924172 -0.5168325 -0.16398989 1.2217586 -0.4077568 1.2830193 -0.49448058 -0.3358675 1.9402063 0.69673604 -0.5726593 -0.1130404 -0.046585463 -1.1985592 0.16384502 -1.0042995 0.8279252 1.3867642 0.60217345 -0.10143558 1.268601 0.3082811 0.6598012 0.40417108 1.2200736 0.20912857 -0.6270608 -0.32097402 -0.9650279 -0.9303372 -0.61886656 0.19843443 0.21017264 -0.41651118 1.4996704 0.343313 0.25231916 0.23841697 -0.5169945 -1.2827463 1.5734785 -0.13860825 -0.25358027 -0.3913429 1.3083742 -0.005760116 0.38086912 -0.09563544 0.46120182 0.88109404 -0.33335236 0.6076191 0.45946628 0.5709198 -0.32095575 -0.5558079 0.4700856 0.3531965 0.8069833 0.9157442 -0.098283514 0.12162129 0.3233913 -1.5377011 0.004915877 0.082917154 0.1610753 -0.06683273 -0.01148143 -0.36728555 1.5034938 -0.34493873 -1.0283645 -0.2903515 -2.1451826 -0.8488831 -1.6575572 -0.6490623 0.8529872 0.86950815 -1.1533661 2.2063313 -1.3097206 -0.03932341 -0.101228796 0.30156252 0.13191606 1.319795 0.24980524 -1.8792225 0.15939233 0.14262353 -0.0114567485 0.14935377 0.39282376
video 0.6795721 0.74778056 0.1645585 0.2817334 -0.53283495 0.25366488 -0.49703082 -0.48787665 1.0309926 -0.8282967 -0.26571637 0.31889537 0.31796446 1.2469313 1.0826528 -1.0792658 0.39235035 -0.093835145 0.10401861 -0.45583478 -0.22508544 -0.4866649 -0.36773142 0.63753396 0.4382267 -0.44750974 0.21085486 0.23780121 0.38294026 0.18424872 0.37796873 -0.09111692 0.4805531 -0.3565517 -0.3328894 0.2954442 0.10364138 -0.52389896 -0.03803612 0.14831395 0.028132651 -1.1282597 0.09016718 -0.46017548 0.9317754 0.3586968 0.09080954 0.10402278 -0.600055 -0.51377994 -0.43993157 0.5131765 0.32795072 -0.49032244 -0.06037746 0.68082947 -0.6404285 0.43782794 -0.7700133 0.30344665 0.314429 -0.52187496 -0.46259135 0.45016176 0.16439769 0.030366648 0.67807907 0.5881325 0.8602274 -0.25877842 -1.1213299 0.30209306 0.19918859 0.37647608 -0.08697976 -0.31089917 -0.02602961 -0.06137168 0.80191934 -0.44145402 0.50067055 0.20433874 0.3283213 0.5452906 0.6481659 -0.26287523 -0.33347714 0.24823515 0.81716746 0.9123897 -0.30682343 -0.08703644 -0.09737834 0.19642627 -0.6694912 -0.8918938 -0.13284898 -0.57456636 -0.7455652 -0.35515094
life -0.19938914 -0.924419 0.052747738 0.026146613 0.6227293 -0.34343228 -0.000253644 0.079197 -0.10750078 -0.24757643 0.73522264 -0.14770305 -0.23342775 0.85020936 0.05607118 0.25083178 -0.07535172 -0.3832728 0.45972693 -0.30587602 -0.5393533 0.21744171 0.73325086 0.32692304 -0.22253478 0.41637915 -0.4729292 -0.49155667 0.16480947 0.16258197 0.5461915 0.18738262 -0.09002114 -0.17071526 -0.055658676 -0.3514297 -0.3652155 -0.23170006 -0.43451083 -0.6093108 -0.21161766 0.98575664 -0.35305333 -0.5501332 -0.75251746 0.3681159 -0.19078735 -0.07811638 0.5066938 0.1216774 1.0372038 -0.44771892 0.19770825 0.654448 0.1486585 -0.32385218 0.29748476 -0.17890413 0.4267431 0.070478 0.588225 -0.4014004 -0.23383997 0.04487002 0.79024845 0.3745812 1.3912458 0.3534531 -0.92556316 0.34720504 -0.4681125 -0.3462947 -0.1332221 0.4668532 -0.14489642 0.31115162 -0.45588458 0.69148725 0.49849185 0.4711166 -0.21145147 -0.32327104 -0.2854082 0.017233286 0.67776144 -0.5369002 0.49367648 0.2751786 0.02998727 0.42920044 -0.604749 0.25382748 -0.5119197 0.058554467 -0.21912207 0.34821966 0.13854523 0.68031335 -0.5767998 -0.06563019
save -0.03064135 -0.24076305 0.61382306 0.004545078 -0.053519465 0.046637177 -0.07770892 -0.2022662 0.3849967 -0.972642 0.2226139 0.25340793 -0.7650105 1.0003952 0.737578 -0.5701227 0.16346236 -0.87651616 0.63639146 0.040448043 -0.37675163 -0.7578807 0.24148242 0.94181216 -0.3210835 -0.41173849 -0.93685156 -0.33618847 0.2004115 0.19777878 0.70540375 0.64643836 -0.08849536 -0.18894166 0.33035517 -0.03498662 0.30419898 -0.29997182 -0.74555147 -0.7329694 -0.020666152 0.44538903 -0.74395007 -0.9054048 -0.02315537 0.60618454 0.17997198 0.27092314 0.13438603 -0.534054 0.23129007 -0.49916828 0.23687294 0.49956295 -0.29065144 0.49473122 -0.06611438 -0.65471226 0.04340686 -0.08823783 0.8180367 -0.960019 -0.63206244 -0.28146073 0.3277998 0.036793638 1.2446191 0.2033763 -0.03753413 0.051721185 -1.1712191 -0.46566662 0.0015851053 0.596737 -0.09642615 -0.24905479 -0.6793116 0.8201865 0.7386941 0.65764564 0.11550652 0.016345704 -0.18882973 0.44179955 1.0399145 -0.47192478 -0.045477174 0.5074053 0.02985371 0.18507554 -1.003671 0.11763772 -0.40305138 -0.12106182 0.121919125 -0.074981324 -0.2679736 0.20998968 -0.8699214 -0.0870701
ganga 0.2624477 -0.3883229 -1.1913291 -0.54760915 -0.036838043 -0.6693772 -0.29092258 -0.105470076 0.8972114 0.013202364 1.5551139 -0.8142132 0.5143837 0.9047237 0.20808415 -0.30779785 0.077351496 0.38128313 -1.3035023 0.04531253 -0.8483991 1.2263482 1.2197604 -0.29876095 0.0006528191 1.0280807 0.5047511 0.6530042 0.6732528 0.7995252 0.24371037 -0.77184814 -0.4221205 -1.0904022 -0.56761456 -0.8879908 -0.12557839 0.5831427 -0.13595544 1.4894118 0.50875777 -0.054866005 0.63785684 -0.47453868 -1.0503933 1.5280725 -0.2505262 -0.44758943 -0.27946475 1.3187917 0.26116797 0.6093024 0.4408049 0.16767974 1.380591 -0.5916244 0.876235 0.2602234 0.6960006 -0.36209452 -0.25519168 0.43864235 0.042914193 1.371659 1.0535126 -0.054855704 0.24835609 0.22711426 -1.6560291 -0.109245874 0.29294083 -0.038715884 -0.04135369 0.2150088 -0.6670224 1.90903 -0.2655466 -1.2770945 -0.34494993 -2.357446 -0.26619196 -1.8126254 -1.0288855 1.1054149 0.9100774 -1.4487548 2.6804392 -1.640535 0.28563836 -0.32259852 0.72224027 0.6827257 1.1419318 0.31930172 -2.2850652 -0.23533688 0.17239834 -0.12818149 0.30867755 0.47493967
operation 0.46520346 0.19381085 0.13647006 0.34684184 -0.42045534 -0.7055027 1.0614084 -0.29917905 1.367931 -1.0936457 -0.8174374 1.2197903 0.9703663 0.36052215 0.43631548 -0.7638688 1.2857934 -0.07371355 0.29697323 -0.2694544 0.39929986 -0.28915682 -1.5529512 0.1563857 0.71010005 0.13365135 0.3150858 -1.1473712 0.15508926 1.3018285 0.28879625 0.76677513 -1.2280948 0.1781854 -0.21215805 0.5070147 0.13854234 0.070040725 -0.5579458 0.5736917 0.10279512 -1.6956704 -0.38096637 -0.7681589 1.4011223 0.5210987 0.91012686 -0.052942596 0.4930653 -0.6457739 -0.51823354 0.3350692 1.1321808 -0.07017605 0.48381194 0.78646594 -0.697979 -0.18514012 -0.810777 0.5425736 0.65532553 -0.9131694 -0.6362776 -0.12495264 0.41588968 -0.3240096 0.22201021 0.46743724 0.1123396 -0.86892354 0.13466723 -1.2037461 -0.4087761 1.3633649 -0.3891528 0.4225697 0.16214211 -1.0512948 1.0691123 -1.0797185 1.255249 -0.80143696 -0.035908364 1.806294 1.1137873 -0.49642113 1.2411158 -0.4531983 -0.32309338 0.9167353 -0.24331777 1.1321174 -0.36789593 0.07939526 0.0031615854 -0.9021846 0.04977825 -0.7541075 -1.4612353 0.31831637
hear 0.10864636 -0.025847336 -0.9130229 -0.03177689 -0.48576 0.08785494 -0.43836805 -0.79611313 1.4339144 -1.2187932 0.7928021 -0.15198031 0.4913847 2.233104 0.91285735 -0.5459672 -0.7119981 -0.110131845 0.035843767 -0.5701553 -0.34337428 0.4342273 1.0210786 1.5873201 0.19646531 1.0982125 1.0643237 0.31500122 0.41106215 0.5237632 0.93539006 -0.0125911785 0.34572476 -1.101022 -1.1474211 -0.12157705 -0.32873902 -1.215615 -0.12433043 1.0128098 -0.5139466 -0.5208834 0.6574175 -0.7486292 -0.75584596 0.6066644 -0.06825345 -1.1917839 -0.47887754 -0.0809678 0.21603936 0.2883458 -0.45635417 0.3451693 0.50818425 -0.10748866 -0.32056126 1.4711839 -0.04601836 -0.21457781 0.44789502 -0.27075502 -0.320829 0.66430444 1.5959529 0.5104786 0.9574703 1.3006815 -0.67680025 0.24255213 -0.39661312 0.62379575 0.9591507 0.20443359 -0.1411671 0.52874935 -0.36846 -0.40073812 1.1236368 -1.030991 -0.23306426 -0.15355498 0.34409848 0.6718073 1.9928801 -0.31745002 0.6293944 -0.35610604 0.7671983 1.5040919 -0.58466375 0.46690586 0.7014925 -0.27655795 -1.4391469 -0.3188987 0.57108605 0.04266882 -0.8277798 -0.3800556
sad 0.30984452 -0.1926393 -0.94937336 0.3770341 0.15682718 -0.026336873 -0.16824599 -0.5426107 1.3981922 -0.8007142 0.29384992 -0.20245595 0.40886497 1.5450603 0.59024656 -0.2655789 -0.47901893 0.008241504 0.28410378 -0.5077487 -0.11775048 0.4490934 0.66157305 1.4122772 0.31041193 0.8454527 0.7701078 -0.029011305 0.363327 0.58833057 0.7301013 0.08087537 0.38861054 -0.55994874 -0.72462183 -0.09936743 -0.07512115 -0.93708587 -0.35730878 0.46464333 -0.6128193 -0.27351522 0.26374525 -0.62964165 -0.418801 0.54009986 -0.024673764 -0.636751 -0.10047916 0.048470315 0.27224886 0.26583785 -0.38718563 0.54017764 0.45552048 0.09065731 -0.40379024 1.1463624 -0.09423758 0.121483095 0.58782274 -0.54412353 -0.32953542 0.30635172 1.2219012 0.37772673 1.2385564 1.0792304 -0.57984763 0.08775558 -0.19400251 0.31230283 0.5344808 -0.012973624 -0.1846142 0.6806159 -0.36030367 0.0017985515 1.0772325 -0.6326257 -0.48290628 -0.22128052 0.13199203 0.45674062 1.5647566 0.029119657 0.5199321 0.045637865 0.4203395 0.97494817 -0.6233171 0.38520497 0.29600337 -0.44936237 -0.93969405 0.06979769 0.5051973 -0.1583292 -0.6589459 -0.46633664
thought 0.19408256 0.0020192736 -0.45029646 0.08367695 0.07044538 0.03674983 -0.29719266 -0.20834617 0.96107835 -1.1139979 0.13388266 -0.06111429 -0.065158 1.5051061 0.5595061 -0.41871437 -0.5783519 -0.12974535 0.5321962 -0.44509894 -0.2576376 -0.03908727 0.84758246 1.4114108 0.14983617 0.42166892 0.14045812 0.32810396 0.47507146 0.17657068 0.66919017 0.20203647 0.40983224 -0.5802595 -0.34512627 -0.3425982 -0.21684088 -0.9681874 -0.4947133 0.13846977 -0.23479104 0.10684312 -0.103192665 -1.0691159 -0.39286 0.8366898 0.31551114 -0.24158318 -0.120027214 -0.32251334 0.3919292 -0.23066832 -0.07007748 0.778256 -0.020426251 0.28814372 -0.5117753 0.18600723 0.003310344 -0.096542485 0.83208305 -0.58183473 -0.5995016 0.27455315 1.0510186 0.30601472 1.1383765 0.891823 -0.4740433 0.3149637 -0.7428326 0.07987804 0.0738217 0.06847074 -0.1917952 0.2726251 -0.36551884 0.43139327 0.88265103 -0.16636238 -0.34710637 -0.16506504 0.08483895 0.54865426 1.5991429 -0.15566963 0.059070896 0.1229332 0.2568469 0.62767065 -0.8256697 0.11814821 -0.24567164 -0.44886583 -0.49287906 -0.17536852 0.0028500464 -0.072654516 -0.8857697 -0.31106326
kind 0.8625579 0.754937 0.1800674 0.6899732 -0.17296654 -0.17888844 -0.0260517 -0.34719968 2.435525 -1.6193323 -0.7202987 1.1761906 -0.3606962 1.5208049 1.1814996 -1.2045549 1.1563736 -1.0804658 -0.0735056 0.17325173 0.21484235 -0.7790139 -0.81224614 1.0661718 0.7168528 0.001501062 -0.19844402 -0.5347827 0.37570593 1.427774 0.70569086 0.56309277 -0.61620927 -0.038099557 -0.15072235 0.5954101 0.73025036 -0.36583436 -1.3553557 0.1890152 0.09659869 -1.1913077 -0.7251151 -1.1694254 1.0223734 1.3246766 0.8609423 0.7286733 -0.526962 -0.6988795 -0.8608699 0.23720706 0.79661185 0.31679526 0.27424645 1.21046 -1.0354294 -0.065207094 -0.6625994 0.46991968 0.8132481 -1.7484794 -1.1363918 0.0215548 0.3049321 -0.29730067 0.26770076 0.52957904 0.6410389 -0.78568804 -1.3027527 -1.1810372 -0.61215234 1.1563859 -0.80562633 0.65746546 -0.49930254 0.11344261 1.5914536 -0.8441795 0.09235478 -0.8719585 -0.018114114 2.1327786 1.8134072 -0.83549297 1.1986605 -0.2077786 0.20006846 0.4555962 -0.8277811 0.6995019 0.01145342 -0.30646834 -0.04516303 -0.6525798 -0.30819932 -0.6928724 -1.2637867 -0.05323462
tragedy 0.2589606 0.0018308634 -0.54016244 0.41647652 0.28880635 -0.13684033 0.12206776 -0.37221587 1.0967247 -0.6253617 -0.26680917 0.0397 0.25353655 0.9014541 0.49758413 -0.23790513 -0.094605215 -0.16461073 0.36060813 -0.28668156 0.072492495 0.16805038 0.18374962 1.00996 0.4121952 0.39602488 0.29764688 -0.2087566 0.33821264 0.6667831 0.57480395 0.31517735 0.112184525 -0.23127446 -0.3532365 0.03208414 0.06710191 -0.50743896 -0.5191582 -0.038138285 -0.37350783 -0.4757716 -0.074511684 -0.66925687 0.114808954 0.56133956 0.11018512 -0.21059899 -0.015593027 -0.1206721 0.12349962 0.10248741 -0.14467593 0.44019037 0.20154499 0.32868755 -0.45036143 0.5452915 -0.27361912 0.25593847 0.7105879 -0.6475913 -0.41057703 0.05315522 0.6807895 0.11327794 0.91880506 0.62685555 -0.276108 -0.14224042 -0.17114937 -0.115580805 0.118164204 0.1716142 -0.2582254 0.4253653 -0.3809541 0.123345934 0.97666615 -0.3353335 -0.31363297 -0.23859476 0.02071931 0.5095018 1.1132616 0.17182043 0.3807036 0.20468773 0.15580447 0.58397883 -0.5651106 0.37617475 -0.19838725 -0.4772308 -0.2839625 0.0018372049 0.23260367 -0.30368915 -0.6085561 -0.33145648
contact 1.0814201 1.391889 0.37572145 0.57497615 -0.75825465 -0.14767092 0.34584296 -0.42271593 2.3974864 -1.5237556 -1.390671 1.5610143 0.2989827 0.9448937 1.3047432 -1.5031875 1.4255009 -0.63663447 -0.12210633 0.09173153 0.71168756 -0.93555677 -1.6393019 0.48240808 0.9304801 -0.32291588 0.115128845 -0.47559562 0.29110584 1.3331814 0.57544804 0.82348084 -0.675191 0.0945335 -0.07810521 0.890487 0.65077746 -0.22737694 -0.97047174 0.3885207 0.12865692 -2.2688072 -0.5224333 -1.0552741 1.8935025 1.1200339 1.0947717 0.78505385 -0.65879196 -1.1635264 -1.3843957 0.505978 0.94866097 -0.28447235 0.09529729 1.5934755 -1.265451 -0.14910442 -1.3033292 0.65325487 0.75135726 -1.5846264 -0.9888909 0.09290611 -0.17559469 -0.44057956 -0.42076483 0.42283604 1.2446684 -1.2212754 -0.8012851 -1.0937917 -0.5550877 1.129958 -0.6486523 0.07826949 -0.1899344 -0.4252878 1.5158435 -1.2322237 0.93678576 -0.6057473 0.2276311 2.3079154 1.3820294 -0.5841552 0.87018365 -0.15691198 0.29214793 0.68946445 -0.48333788 0.9219238 -0.13992323 -0.13464192 0.16617675 -1.2099429 -0.5637036 -1.2491039 -1.3122993 -0.090634465
situation 0.18798916 -0.06084499 0.2784093 -0.06587936 -0.3089902 -0.22068566 0.072327726 -0.21151896 -0.21601056 0.037125792 0.19116011 -0.08601666 0.8977991 0.076206796 0.47955105 -0.096385576 0.6090877 0.03890388 0.18503195 -0.44766498 -0.29511857 -0.035430297 -0.4194491 -1.0871079 0.36221635 -0.037545793 0.020689046 -0.46677533 0.21669722 0.13835163 0.7552093 0.3826034 -0.269361 0.011534003 -0.25089595 0.030954322 -0.39657825 0.6014703 0.2096954 -0.018655675 -0.01750179 -0.9245651 0.19397108 -0.46718127 0.6213036 0.18481715 -0.3484723 -0.30040404 0.16030492 -0.18093787 0.23505564 -0.045214023 0.43979043 -0.4753312 0.49311352 -0.065229826 0.24756297 -0.08246613 -0.3501127 0.17204362 0.49055895 -0.21770562 -0.19119574 0.5309072 0.32211164 0.043074753 0.4825511 0.121429205 -0.45426774 -0.5245409 -0.0054262634 -0.5741652 0.05210671 0.6896391 -0.22708547 -0.0552747 0.13439278 -0.19886933 0.7548382 -0.50029945 1.0066181 -0.1553663 -0.21850912 0.3520195 0.3298594 -0.71999824 0.7565517 0.17934826 0.61381245 0.7156779 0.28334472 0.96873724 -0.8465522 0.3314825 -0.6920634 -0.76743704 -0.11841293 0.0647532 -0.6379789 -0.24724281
nature 0.27322394 -0.19028667 0.6452667 -0.018336188 0.26370654 0.0902981 -0.5585703 0.03640344 -0.06760766 -0.459423 0.5082257 0.037742615 -0.69611275 1.0275685 0.49313346 -0.4749022 0.11861819 -0.6001283 0.24668358 0.039570536 -0.57338977 -0.35010794 0.5919194 0.38343957 -0.2862422 -0.17961176 -0.7457702 -0.15198934 0.08725672 -0.09064046 0.41196913 0.014455781 0.13107786 -0.28036505 -0.123756364 0.03480762 -0.09531639 -0.21194443 -0.35653663 -0.59812057 0.028368492 0.56827694 -0.6924369 -0.35558534 -0.19441006 0.35487726 -0.27091545 0.55873466 -0.31717384 -0.1930653 0.44599938 -0.31386665 0.3152879 0.13857983 -0.031839035 0.35226923 0.14683226 -0.21645695 -0.056537457 -0.07033248 0.561439 -0.6205046 -0.14369318 0.13671748 0.60292685 0.28189465 1.1757584 0.18864995 -0.09847752 -0.061749876 -1.379642 -0.04671511 0.005659781 0.76437414 -0.1676393 -0.09257454 -0.6790707 0.9297341 0.49193904 0.3207811 -0.0026626436 0.0009426469 -0.24618806 0.1906604 0.5790455 -0.9116666 0.10575876 0.20102324 0.4793267 0.37643448 -0.6961357 -0.094396204 -0.26247406 0.24126147 -0.5844334 -0.13264477 -0.43116692 0.48349229 -0.40770862 0.088617004
ndrf 0.14613746 -0.54358906 0.6340465 -0.0211561 -0.10726499 -1.0505006 1.0153006 -0.0761651 0.0018040087 -0.20863059 -0.033450395 0.63842124 1.7694794 0.013292449 0.37155986 -0.10669959 1.5924886 0.121341 0.4469097 -0.71473515 -0.37512824 0.19867039 -1.3008381 -1.2726611 0.56116515 0.34227246 0.11927348 -1.7126762 0.11537107 0.9208291 0.75824857 0.78380287 -1.26121 0.10743528 -0.5333008 0.38749436 -0.6429616 0.609801 0.15129085 0.09035964 -0.12750371 -1.533058 -0.25707644 -0.67562103 1.1436728 0.23652332 0.15289617 -0.4422291 0.9551337 -0.39353633 0.44465345 0.04242835 1.033599 -0.47099894 0.7373946 0.03794098 0.22421998 -0.36637238 -0.6496199 0.7625778 0.57695174 -0.2465022 0.09027316 0.024814738 0.49830008 -0.021711005 0.7987182 0.47188666 -0.73866004 -0.8695083 0.67064726 -1.0565835 -0.16828676 1.6953363 -0.25598213 -0.09920829 0.26583946 -0.99523604 0.99709594 -0.8681066 1.9888574 -0.51739776 -0.27945104 1.029177 0.41184822 -0.7794181 1.3305959 -0.05133705 0.089903094 1.4635661 0.25356638 1.6012565 -1.0835656 0.79698133 -0.33687854 -0.80870914 0.17438361 -0.022137722 -1.3903749 0.17451565
work 0.31408414 0.004776739 0.20465639 -0.7021864 -1.1317512 0.124141 0.44308785 -0.41588405 0.03668757 -1.2947673 0.39097315 0.19931492 -0.103941925 0.18024248 0.8634146 -1.4054376 0.44322643 -0.15477692 0.6790263 0.15339883 -0.6825239 -0.6622179 -0.08139496 0.9735508 -0.34831277 -0.8589079 -0.80206066 -0.017186167 0.56375927 0.0770224 -0.044932704 0.44369864 -0.29963714 -0.2354446 0.82066405 -0.2711709 0.6322015 -0.08038483 -0.14021328 -0.07319307 0.30331233 -0.6511608 -0.49829015 -1.0181378 1.0438013 0.5787953 0.63731027 -0.22709306 0.365427 -0.5036669 -0.1827845 -0.36429283 0.9652177 0.36675885 0.25964645 0.9446591 0.0019877902 -1.3925498 0.13789178 -0.41020796 1.5675135 -0.83523774 -0.9696072 -0.30664152 1.1742849 -0.19998203 1.4198982 0.07577342 -0.5384745 -0.2695204 -0.6987789 -0.53906906 0.35037878 1.3253715 0.08323961 -0.03832962 -0.8524041 -0.931084 0.6616824 -0.7201781 1.1578048 -0.22633168 -0.65255314 1.3301556 1.9810187 -1.1767883 0.4362728 -0.585647 -0.17142151 0.05772984 -0.5507141 0.82230484 -0.37208438 0.451826 -0.6552642 -1.2563889 -0.54326683 -0.60106564 -1.679606 0.7139465
u 0.25731578 -0.12092802 0.44875455 0.011492379 -0.0344505 0.24791454 -0.42372474 -0.17742996 0.16227025 -0.75152713 0.3678261 0.04928543 -0.66025716 1.0097879 0.64687693 -0.58529246 0.004672096 -0.5710006 0.49657774 -0.038065903 -0.46565506 -0.5419766 0.5054932 0.75237453 -0.23553707 -0.35994524 -0.6903786 -0.074460305 0.18336448 -0.11949639 0.53311193 0.2185578 0.25865915 -0.21171778 0.08749671 -0.027388083 0.14358388 -0.3327289 -0.44753414 -0.60490894 -0.084813565 0.35521856 -0.5342008 -0.5578423 0.00020223971 0.35190433 -0.13619229 0.29067656 -0.2189477 -0.39624014 0.24038814 -0.34583163 0.24469566 0.24591272 -0.067065224 0.45630586 -0.044304848 -0.28842673 -0.035919514 -0.16504508 0.86185676 -0.9038572 -0.5382417 0.0073152217 0.6717096 0.22556461 1.4020045 0.30298203 -0.10783872 -0.042253636 -1.4520164 -0.1467029 0.14942178 0.63917 -0.12066412 -0.12888718 -0.7212368 0.83252406 0.7855221 0.3598471 0.043423913 0.11483452 -0.20718451 0.3385612 1.1478897 -0.7736036 0.011442827 0.33210889 0.4701351 0.34618512 -0.87105304 0.04508351 -0.3421788 0.05072378 -0.52943504 -0.31485695 -0.37202406 0.2529554 -0.7881821 -0.071291864
following 0.8434619 0.7542716 0.49000347 -0.13154341 0.0060885586 -0.6696432 -0.29608598 0.17446914 0.7132226 -0.047788654 0.3163102 0.6738016 -0.12893485 0.54325664 0.50320804 -0.9553783 1.5147167 -0.5332526 -1.4872475 0.20988943 -0.22237754 0.122688815 -0.34906098 -1.223681 -0.15366055 -0.15260792 -0.5062649 -0.23227356 -0.08812578 0.964148 0.076436415 -0.4126593 -1.0324339 -0.153869 -0.12651594 0.35731682 0.4364926 1.1748166 -0.4518825 0.6361337 0.58520615 -0.32805124 -0.78720194 0.16192919 0.09959052 1.2876331 0.008727053 1.4131404 -0.8803125 0.17384864 -0.6589904 0.6295456 0.83110476 -0.55413955 0.74650323 0.50884527 0.32737476 -0.36999893 -0.16455403 0.52019024 -0.40419427 -0.301942 0.4749526 0.8086634 -0.43227288 -0.4169497 -0.87852854 -0.4912965 0.30517712 -0.85833716 -0.44252723 -0.5478295 -0.58121985 1.1817309 -0.589828 0.5786515 -0.41585398 -0.6621713 -0.20605709 -1.4830679 0.55699474 -1.0993946 -0.6827184 1.3021115 -0.53073734 -1.6215907 1.7850059 -0.96110296 0.1435333 -0.38801017 0.69602674 0.5888209 1.142018 0.9002033 -0.58505034 -0.09851754 -0.49336934 -0.35675228 0.64756924 0.5463904
